Cufon.registerFont({"w":1180,"face":{"font-family":"SLW","font-weight":400,"font-stretch":"normal","units-per-em":"2048","panose-1":"0 0 0 0 0 0 0 0 0 0","ascent":"1638","descent":"-410","cap-height":"3","bbox":"-170 -1115.14 1686.01 241","underline-thickness":"20","underline-position":"-132","unicode-range":"U+0020-U+007E"},"glyphs":{" ":{"w":506},"!":{"d":"283,-70v0,46,-30,69,-90,69v-57,0,-85,-23,-85,-69v0,-44,28,-66,85,-66v60,0,90,22,90,66xm263,-261v0,39,-23,58,-70,58v-43,0,-65,-19,-65,-58r0,-597v0,-37,22,-56,67,-56v45,0,68,19,68,56r0,597","w":429},"\"":{"d":"246,-639v0,37,-21,56,-63,56v-41,0,-62,-19,-62,-56r0,-226v0,-37,20,-55,61,-55v43,0,64,18,64,55r0,226xm445,-639v0,37,-21,56,-63,56v-41,0,-62,-19,-62,-56r0,-226v0,-37,20,-55,61,-55v43,0,64,18,64,55r0,226","w":597,"k":{"s":122,"r":60,"S":30}},"#":{"d":"382,-387r267,0r43,-134r-269,0xm685,-45v-23,68,-152,29,-129,-43r60,-190r-269,0r-72,233v-18,65,-139,35,-131,-29v10,-74,42,-135,61,-204v-71,-7,-171,29,-171,-57v0,-35,16,-52,49,-52r156,0r42,-134v-75,-8,-188,32,-188,-58v0,-34,17,-51,52,-51r169,0r74,-237v18,-62,134,-35,134,26v-18,73,-44,141,-64,211r267,0r74,-237v17,-66,133,-35,132,27v-17,74,-42,139,-62,210v62,4,145,-21,145,51v0,90,-107,49,-180,58r-42,134v66,6,163,-25,163,52v0,38,-17,57,-50,57r-148,0","w":1095},"$":{"d":"191,-609v0,60,65,90,196,90r94,0r0,-281r-135,0v-103,0,-155,35,-155,104r0,87xm617,-412r0,303r112,0v123,0,185,-31,185,-92r0,-107v0,-69,-74,-104,-222,-104r-75,0xm617,0v5,57,-8,87,-68,87v-60,0,-73,-30,-68,-87r-376,0v-33,0,-50,-19,-50,-56v0,-35,17,-53,50,-53r376,0r0,-303r-67,0v-259,-7,-355,-68,-355,-264v0,-155,104,-233,312,-233r110,0v-4,-53,15,-78,71,-78v43,0,65,19,65,58r0,410r53,0v251,0,376,77,376,230r0,71v0,145,-113,218,-339,218r-90,0","w":1112},"%":{"d":"1204,-288v10,-66,-112,-64,-195,-64v-87,0,-131,25,-131,76r0,105v0,45,44,68,132,68r82,0v75,0,112,-23,112,-68r0,-117xm497,-746v10,-64,-114,-61,-195,-61v-87,0,-130,25,-130,75r0,106v0,47,44,70,131,70v85,0,194,4,194,-70r0,-120xm378,-4v-52,49,-154,-30,-101,-90r744,-833v51,-56,155,32,103,90xm1328,-173v7,128,-119,173,-301,173v-178,0,-267,-58,-267,-173r0,-100v-7,-130,121,-179,310,-179v172,0,258,59,258,178r0,101xm621,-629v7,128,-119,173,-301,173v-178,0,-267,-58,-267,-173r0,-100v-7,-131,121,-180,310,-180v172,0,258,59,258,178r0,102","w":1429},"&":{"d":"677,-800v-117,0,-357,-28,-358,68v-1,70,-6,93,51,128r126,77r268,-89v29,-11,50,-20,53,-53v8,-101,-17,-131,-140,-131xm789,-109v57,0,103,-8,136,-25r-441,-270v-77,22,-169,58,-206,80v-61,36,-55,62,-54,137v0,52,70,78,210,78r355,0xm1207,-97v49,26,16,109,-35,102v-55,-8,-91,-50,-136,-72v-114,92,-374,67,-581,67v-243,0,-365,-67,-365,-201v0,-199,128,-226,265,-281v-82,-51,-167,-85,-167,-232v0,-130,101,-195,304,-195r166,0v207,4,301,63,294,219v-4,101,-47,150,-133,177r-196,64r385,233v27,-59,27,-124,26,-205v0,-37,21,-55,64,-55v77,0,68,59,67,127v0,82,-16,148,-48,199","w":1359},"'":{"d":"243,-639v0,37,-21,56,-62,56v-41,0,-62,-19,-62,-56r0,-226v0,-37,20,-55,61,-55v42,0,63,18,63,55r0,226","w":411,"k":{"s":122,"r":60,"S":30}},"(":{"d":"331,-884v-67,0,-100,21,-100,62r0,718v0,53,33,79,100,79v33,0,49,18,49,54v0,43,-23,54,-66,54v-145,0,-217,-62,-217,-185r0,-720v-3,-122,84,-171,234,-171v33,0,49,18,49,53v0,37,-16,56,-49,56","w":511},")":{"d":"136,-884v-33,0,-50,-19,-50,-56v-1,-45,28,-53,74,-53v140,0,210,57,210,171r0,720v2,129,-82,190,-234,185v-33,0,-50,-18,-50,-54v0,-36,16,-54,49,-54v67,0,101,-26,101,-79r0,-718v0,-41,-33,-62,-100,-62","w":508},"*":{"d":"170,-468v-57,50,-143,-51,-108,-117v5,-9,16,-15,29,-19r158,-46r56,-12v-81,-10,-143,-39,-214,-59v-23,-7,-35,-23,-35,-49v0,-52,34,-100,84,-100v11,0,21,5,30,14v53,52,110,99,157,157v-29,-57,-41,-152,-58,-217v-2,-43,41,-62,82,-62v42,0,90,21,77,69v-18,71,-31,148,-58,210v44,-58,101,-103,153,-153v11,-10,21,-15,30,-15v58,5,103,72,78,131v-4,10,-14,16,-27,19v-70,19,-133,45,-212,55v79,10,140,38,210,58v24,7,36,24,36,48v0,53,-35,95,-85,102v-9,1,-19,-3,-29,-14v-52,-52,-110,-97,-154,-156v27,70,43,152,59,234v-5,69,-174,61,-162,-12v13,-76,33,-155,60,-222v-46,59,-101,108,-157,156","w":733},"+":{"d":"508,-453v0,36,-15,54,-46,54r-143,0v-2,69,18,148,-62,148v-84,0,-64,-76,-66,-148r-139,0v-32,0,-48,-18,-48,-54v0,-35,16,-53,48,-53r137,0v2,-69,-18,-143,64,-143v84,0,64,72,66,143r143,0v31,0,46,18,46,53","w":551},",":{"d":"107,-186v43,-32,123,-12,106,52r-55,215v-7,66,-135,71,-121,-2r42,-221v3,-19,13,-33,28,-44","w":283},"-":{"d":"170,-329v-35,0,-52,-16,-52,-48v0,-33,17,-50,52,-50r480,0v31,0,46,16,46,48v0,33,-15,50,-46,50r-480,0","w":854},".":{"d":"267,-70v0,46,-29,69,-88,69v-58,0,-87,-23,-87,-69v0,-44,29,-66,87,-66v59,0,88,22,88,66","w":401},"\/":{"d":"853,-905v36,-38,116,-8,114,43v0,15,-7,30,-21,44r-805,818v-36,39,-102,1,-100,-46v0,-13,6,-27,18,-40","w":1039},"0":{"d":"1024,-654v0,-97,-65,-146,-195,-146r-388,0v-132,0,-198,49,-198,146r-1,424v0,81,66,121,199,121r388,0v130,0,195,-41,195,-122r0,-423xm1160,-269v0,179,-123,269,-368,269r-316,0v-245,0,-368,-82,-368,-247r0,-392v0,-180,123,-270,370,-270r317,0v243,0,365,90,365,270r0,370","w":1307,"k":{"Y":76,"W":76,"V":76,"'":76,"\"":76}},"1":{"d":"243,-51v0,37,-23,56,-69,56v-44,0,-66,-19,-66,-56r0,-807v0,-37,22,-56,67,-56v45,0,68,19,68,56r0,807","w":390},"2":{"d":"1224,-683v0,206,-82,287,-325,287r-439,0v-145,0,-218,35,-218,105r0,182r934,0v33,0,49,18,49,54v0,37,-16,55,-49,55r-1024,0v-29,0,-44,-15,-44,-46r0,-243v0,-143,126,-215,377,-215r431,0v114,0,171,-34,171,-102r0,-94v0,-67,-53,-100,-160,-100r-229,0v-37,0,-55,-18,-55,-54v0,-37,18,-55,55,-55r210,0v211,0,316,75,316,226","w":1372},"3":{"d":"1121,-699v0,128,-28,187,-142,230v112,38,142,106,142,237v0,155,-122,232,-365,232r-708,0v-37,0,-56,-18,-56,-55v0,-36,19,-54,56,-54r731,0v137,0,206,-39,206,-116r0,-89v-8,-63,-75,-94,-201,-94r-736,0v-38,0,-57,-18,-57,-54v0,-38,19,-57,57,-57r736,0v134,0,201,-33,201,-99r0,-88v0,-63,-68,-94,-204,-94r-174,0v-38,0,-57,-18,-57,-54v0,-85,120,-55,195,-55v251,0,376,70,376,210","w":1267},"4":{"d":"1249,-51v0,37,-23,56,-68,56v-45,0,-68,-19,-68,-56r0,-188r-975,0v-47,0,-71,-25,-71,-74r0,-545v0,-37,22,-56,67,-56v44,0,66,19,66,56r0,488r913,0r0,-488v0,-37,23,-56,68,-56v45,0,68,19,68,56r0,807","w":1396},"5":{"d":"1204,-221v0,147,-129,221,-388,221r-704,0v-36,0,-54,-18,-54,-54v0,-37,18,-55,54,-55r715,0v161,0,242,-37,242,-112r0,-137v0,-83,-65,-124,-196,-124r-761,0v-29,0,-43,-15,-43,-44r0,-338v0,-30,14,-45,43,-45r534,0v36,0,54,18,54,55v0,36,-18,54,-54,54r-444,0r0,211r646,0v237,0,356,77,356,231r0,137","w":1351},"6":{"d":"1131,-364v0,-80,-74,-120,-223,-120r-663,0r0,246v0,86,73,129,219,129r474,0v129,0,193,-38,193,-113r0,-142xm1265,-221v0,147,-117,221,-350,221r-431,0v-251,0,-376,-72,-376,-217r0,-467v0,-149,145,-224,434,-224v71,0,180,-28,180,54v0,36,-18,54,-54,54r-183,0v-160,0,-240,44,-240,133r0,74r638,0v255,0,382,75,382,226r0,146","w":1371},"7":{"d":"1031,-909v71,-7,99,69,60,117r-622,771v-33,45,-107,10,-104,-42v0,-14,5,-28,15,-41r559,-696r-889,0v-35,0,-52,-19,-52,-58v0,-34,17,-51,52,-51r981,0","w":1169},"8":{"d":"1093,-705v0,-63,-64,-95,-191,-95r-450,0v-128,0,-192,32,-192,95r0,98v0,58,62,87,186,87r456,0v127,0,191,-28,191,-85r0,-100xm1112,-300v0,-72,-70,-108,-211,-108r-449,0v-141,0,-211,36,-211,108r0,103v0,59,70,88,211,88r449,0v141,0,211,-30,211,-89r0,-102xm1248,-282v0,212,-94,282,-368,282r-405,0v-274,-8,-367,-70,-367,-282v0,-87,54,-148,161,-183v-123,-44,-144,-90,-144,-221v0,-149,123,-223,369,-223r365,0v245,0,368,75,368,225v0,129,-19,174,-140,219v107,34,161,95,161,183","w":1395},"9":{"d":"1020,-427r0,-243v0,-87,-72,-130,-215,-130r-417,0v-124,0,-186,38,-186,113r0,142v0,79,75,118,224,118r594,0xm1152,-226v0,151,-118,226,-355,226r-158,0v-39,0,-58,-18,-58,-55v0,-82,117,-54,190,-54v83,0,145,-12,187,-33v66,-33,64,-89,62,-175r-570,0v-255,0,-383,-75,-383,-225r0,-149v0,-145,117,-218,351,-218r363,0v247,0,371,86,371,258r0,425","w":1299},":":{"d":"279,-74v0,45,-29,67,-87,67v-59,0,-88,-22,-88,-67v0,-45,29,-67,86,-67v59,0,89,22,89,67xm279,-434v0,45,-29,67,-87,67v-59,0,-88,-22,-88,-67v0,-45,29,-67,86,-67v59,0,89,22,89,67","w":425},";":{"d":"242,-431v0,44,-29,66,-86,66v-58,0,-87,-22,-87,-66v0,-46,28,-69,85,-69v59,0,88,23,88,69xm116,-186v43,-32,122,-13,106,52r-54,215v-6,66,-135,72,-121,-2r41,-221v3,-19,13,-33,28,-44","w":313},"<":{"d":"519,-245v69,23,34,138,-39,119r-458,-224v-44,-17,-39,-83,1,-102r434,-205v55,-28,119,31,87,84v-6,9,-16,16,-29,22r-333,152","w":667},"=":{"d":"169,-240v-33,0,-49,-17,-49,-51v0,-33,16,-49,49,-49r480,0v31,0,47,17,47,51v0,33,-16,49,-47,49r-480,0xm169,-469v-33,0,-49,-18,-49,-53v0,-31,16,-47,49,-47r480,0v35,0,53,17,53,51v0,33,-18,49,-53,49r-480,0","w":859},">":{"d":"170,-135v-71,39,-137,-70,-58,-106r333,-152r-337,-154v-62,-18,-41,-126,23,-122v13,1,21,3,32,9r442,217v45,18,40,84,-1,103","w":666},"?":{"d":"282,-74v0,45,-29,67,-88,67v-57,0,-86,-22,-86,-67v0,-45,29,-67,86,-67v59,0,88,22,88,67xm805,-579v0,143,-117,214,-350,214v-78,0,-197,-25,-192,61v4,58,-10,95,-66,95v-53,0,-63,-37,-63,-94v0,-112,70,-168,210,-168r136,0v133,0,199,-31,199,-92r0,-122v0,-77,-66,-115,-199,-115v-56,1,-110,8,-110,-53v0,-53,36,-56,88,-56v231,0,347,81,347,242r0,88","w":951},"@":{"d":"454,-373v-4,42,132,32,192,33r0,-234v-63,1,-192,-11,-192,37r0,164xm552,-226v-125,0,-215,-35,-215,-146r0,-163v0,-95,71,-142,212,-142r174,0v27,0,41,14,41,41r0,296v57,-3,131,17,131,-47r0,-360v0,-35,-34,-53,-102,-53r-439,0v-84,0,-126,29,-126,87r1,503v0,67,44,101,131,101v58,0,136,-14,136,48v0,63,-47,61,-107,61v-187,0,-281,-70,-281,-210r0,-503v0,-131,82,-196,245,-196r440,0v151,0,226,61,226,184r0,338v0,107,-57,161,-170,161r-297,0","w":1166},"A":{"d":"377,-358r550,0r-273,-433xm1262,-90v38,52,-22,112,-84,86v-10,-4,-19,-10,-26,-21r-150,-222r-696,0r-151,225v-28,47,-123,24,-121,-33v0,-11,4,-23,11,-34r521,-780v23,-40,83,-64,134,-37v15,8,28,20,39,37","w":1347,"k":{"v":152,"Y":198,"W":198,"V":198,"T":152,"L":91}},"B":{"d":"248,-800r0,296r576,0v129,0,194,-33,194,-99r0,-94v0,-69,-60,-103,-180,-103r-590,0xm242,-109r625,0v122,0,183,-31,183,-92r0,-88v0,-71,-74,-107,-221,-107r-587,0r0,287xm1157,-674v0,120,-28,180,-131,219v122,41,160,103,160,234v0,147,-106,221,-319,221r-716,0v-29,0,-43,-15,-43,-46r0,-818v0,-30,14,-45,43,-45r685,0v214,0,321,78,321,235","w":1332},"C":{"d":"469,-800v-151,0,-227,35,-227,105r0,464v0,81,83,122,249,122r499,0v33,0,50,18,50,54v0,37,-17,55,-50,55r-517,0v-243,0,-365,-76,-365,-228r0,-467v0,-143,119,-214,358,-214r524,0v33,0,50,18,50,54v0,37,-17,55,-50,55r-521,0","w":1138},"D":{"d":"1061,-684v0,-77,-73,-116,-219,-116r-597,0r0,691r594,0v148,0,222,-43,222,-130r0,-445xm1195,-239v0,159,-118,239,-353,239r-690,0v-29,0,-44,-15,-44,-46r0,-818v0,-30,15,-45,44,-45r693,0v233,0,350,75,350,225r0,445","w":1342},"E":{"d":"245,-504r798,0v31,0,47,18,47,55v0,35,-16,53,-47,53r-798,0r0,171v0,77,74,116,221,116r577,0v33,0,49,18,49,55v0,36,-16,54,-49,54r-582,0v-235,0,-353,-73,-353,-219r0,-465v0,-150,122,-225,365,-225r159,0v31,0,47,19,47,56v0,78,-90,53,-155,53v-186,0,-279,39,-279,116r0,180","w":1179,"k":{"v":45,"Y":137,"W":137,"V":137,"T":183}},"F":{"d":"245,-396r0,345v0,37,-22,56,-67,56v-47,0,-70,-19,-70,-56r0,-630v0,-152,119,-228,356,-228v69,0,175,-27,175,52v0,81,-93,57,-162,57v-155,0,-232,39,-232,117r0,179r793,0v35,0,52,17,52,52v0,37,-17,56,-52,56r-793,0","w":1119},"G":{"d":"1181,-222v0,148,-112,222,-336,222r-369,0v-245,0,-368,-74,-368,-221r0,-470v0,-145,124,-218,371,-218r144,0v32,0,48,18,48,55v0,77,-85,54,-150,54v-184,0,-276,36,-276,109r0,470v0,75,78,112,234,112r366,0v133,0,200,-36,200,-109r0,-242v0,-37,23,-55,68,-55v45,0,68,18,68,55r0,238","w":1291},"H":{"d":"1209,-51v0,37,-23,56,-68,56v-44,0,-66,-19,-66,-56r0,-345r-816,0r0,345v0,37,-23,56,-69,56v-45,0,-68,-19,-68,-56r0,-807v0,-37,23,-56,70,-56v45,0,67,19,67,56r0,354r816,0r0,-354v0,-37,22,-56,65,-56v46,0,69,19,69,56r0,807","w":1370},"I":{"d":"245,-51v0,36,-23,54,-69,54v-45,0,-68,-18,-68,-54r0,-808v0,-37,24,-56,71,-56v44,0,66,19,66,56r0,808","w":392},"J":{"d":"466,-261v0,174,-115,261,-344,261v-61,-1,-131,14,-131,-54v0,-68,69,-54,131,-55v139,0,208,-47,208,-142r0,-607v0,-37,23,-56,68,-56v45,0,68,19,68,56r0,597","w":612},"K":{"d":"925,-906v50,-30,123,20,93,76v-5,8,-13,15,-24,21r-650,346r672,358v53,20,35,112,-25,108v-10,0,-21,-2,-33,-8r-718,-392r0,346v0,37,-22,56,-65,56v-45,0,-67,-19,-67,-56r0,-807v0,-37,23,-56,68,-56v43,0,64,19,64,56r0,335","w":1155},"L":{"d":"529,0v-281,0,-421,-77,-421,-232r0,-627v0,-37,23,-56,68,-56v46,0,69,19,69,56r0,627v0,82,92,123,277,123r530,0v34,0,51,19,51,58v0,34,-17,51,-51,51r-523,0","w":1123,"k":{"o":30,"g":30,"Y":214,"W":214,"V":214,"O":45,"A":-54,"0":45,"'":106,"\"":106}},"M":{"d":"1584,-51v0,37,-23,56,-70,56v-42,0,-63,-19,-63,-56r0,-662r-508,672v-39,64,-145,54,-186,0r-516,-670r0,660v0,37,-22,56,-65,56v-45,0,-68,-19,-68,-56r0,-786v-5,-99,118,-89,165,-30r580,740r569,-748v39,-59,162,-56,162,41r0,783","w":1731},"N":{"d":"108,-830v-7,-82,101,-101,152,-56r795,705r0,-677v0,-37,23,-56,68,-56v43,0,65,19,65,56r0,776v8,83,-93,110,-146,62r-801,-717r0,686v0,37,-22,56,-66,56v-45,0,-67,-19,-67,-56r0,-779","w":1334},"O":{"d":"1026,-665v0,-90,-73,-135,-220,-135r-327,0v-156,0,-234,45,-234,135r0,425v0,87,78,131,234,131r318,0v153,0,229,-44,229,-131r0,-425xm1161,-238v0,159,-133,238,-400,238r-253,0v-267,0,-400,-79,-400,-236r0,-434v0,-159,133,-239,400,-239r253,0v267,0,400,80,400,239r0,432","w":1307,"k":{"Y":76,"W":76,"V":76,"'":76,"\"":76}},"P":{"d":"1059,-695v0,-70,-70,-105,-211,-105r-603,0r0,356r595,0v146,0,219,-37,219,-110r0,-141xm1192,-547v0,141,-123,212,-369,212r-578,0r0,284v0,37,-23,56,-69,56v-45,0,-68,-19,-68,-56r0,-813v0,-30,15,-45,44,-45r678,0v241,0,362,67,362,202r0,160","w":1259},"Q":{"d":"1052,-681v0,-79,-85,-119,-255,-119r-303,0v-166,0,-249,40,-249,119r0,449v0,82,83,123,248,123r363,0v131,0,196,-41,196,-122r0,-450xm1092,11v52,26,25,111,-33,106v-9,0,-20,-3,-31,-10r-191,-110r-381,0v-232,0,-348,-78,-348,-233r0,-441v0,-155,116,-232,347,-232r378,0v237,0,355,76,355,229r0,444v0,103,-55,173,-165,210","w":1334},"R":{"d":"1051,-683v0,-78,-74,-117,-222,-117r-584,0r0,332r607,0v133,0,199,-32,199,-97r0,-118xm1080,-109v62,19,37,116,-23,113v-7,0,-16,-1,-26,-5r-786,-368r0,318v0,37,-22,56,-67,56v-47,0,-70,-19,-70,-56r0,-813v0,-30,15,-45,44,-45r656,0v251,0,377,78,377,234r0,98v0,144,-115,216,-346,216r-331,0","w":1252},"S":{"d":"1059,-209v0,139,-113,209,-339,209r-602,0v-34,0,-51,-19,-51,-56v0,-35,17,-53,51,-53r620,0v123,0,185,-36,185,-108r0,-76v0,-79,-74,-119,-222,-119r-274,0v-236,0,-354,-63,-354,-190r0,-93v0,-143,104,-214,311,-214r151,0v34,0,51,19,51,56v0,35,-17,53,-51,53r-172,0v-103,0,-155,38,-155,114r0,70v0,65,65,97,196,97r280,0v250,0,375,71,375,212r0,98","w":1165,"k":{"v":45,"Y":137,"W":137,"V":137,"T":183}},"T":{"d":"553,-800r0,749v0,37,-22,56,-67,56v-45,0,-68,-19,-68,-56r0,-749r-373,0v-33,0,-49,-19,-49,-57v0,-35,16,-52,49,-52r882,0v32,0,48,17,48,52v0,38,-16,57,-48,57r-374,0","w":1009,"k":{"y":122,"u":122,"o":168,"g":168,"e":152,"a":229,"A":168}},"U":{"d":"1182,-250v0,167,-149,250,-446,250r-204,0v-283,0,-424,-83,-424,-250r0,-608v0,-37,22,-56,67,-56v46,0,69,19,69,56r0,597v0,101,89,152,267,152r247,0v193,0,290,-50,290,-151r0,-598v0,-37,23,-56,69,-56v43,0,65,19,65,56r0,608","w":1329},"V":{"d":"44,-818v-40,-52,27,-117,86,-88v10,5,18,13,25,24r498,766r492,-765v28,-60,144,-25,119,45v-1,6,-4,12,-7,17r-518,774v-30,60,-135,61,-175,2","w":1338,"k":{"y":106,"u":106,"o":137,"g":137,"e":152,"a":214,"S":30,"O":76,"A":198,"0":76}},"W":{"d":"1557,-878v23,-58,130,-40,129,25v0,6,-1,14,-5,24r-352,775v-21,68,-143,71,-172,2r-293,-693r-303,695v-15,46,-87,66,-135,38v-15,-9,-27,-22,-36,-41r-351,-777v-25,-57,45,-102,99,-75v10,5,19,14,24,27r316,730r298,-704v19,-69,136,-78,167,-6r304,710","w":1759,"k":{"y":106,"u":106,"o":137,"g":137,"e":152,"a":214,"S":30,"O":76,"A":198,"0":76}},"X":{"d":"1083,-90v51,42,-10,107,-72,88v-7,-2,-14,-6,-20,-11r-416,-362r-417,362v-48,47,-152,-23,-92,-76r420,-366r-412,-359v-46,-30,-15,-100,41,-100v16,0,31,6,44,17r416,364r414,-363v37,-38,110,-11,110,39v0,15,-8,30,-24,44r-411,358","w":1189},"Y":{"d":"48,-816v-49,-43,12,-113,73,-92v8,2,15,7,22,14r403,403r401,-402v47,-55,157,18,99,76r-432,433r-1,334v0,39,-27,55,-66,55v-45,0,-68,-19,-68,-56r0,-333","w":1133,"k":{"y":106,"u":106,"o":137,"g":137,"e":152,"a":214,"S":30,"O":76,"A":198,"0":76}},"Z":{"d":"126,0v-67,4,-111,-78,-58,-125r773,-675r-733,0v-33,0,-50,-19,-50,-57v0,-35,17,-52,50,-52r861,0v54,-3,86,74,44,110r-791,690r763,0v32,0,48,18,48,54v0,37,-16,55,-48,55r-859,0","w":1115},"[":{"d":"122,-948v1,-38,8,-45,44,-45r163,0v34,0,51,17,51,51v0,69,-60,58,-121,58r0,859v59,0,121,-10,121,54v0,36,-18,54,-54,54r-160,0v-33,-1,-44,-9,-44,-45r0,-986","w":433},"\\":{"d":"948,-88v41,37,14,106,-38,106v-15,0,-30,-6,-44,-20r-805,-818v-41,-35,-12,-110,44,-110v17,0,34,8,49,23","w":1040},"]":{"d":"272,38v0,36,-11,45,-43,45r-160,0v-37,0,-56,-18,-56,-54v0,-63,64,-55,123,-54r0,-859v-62,0,-123,11,-123,-58v0,-34,17,-51,52,-51r164,0v33,1,43,9,43,45r0,986","w":437},"^":{"d":"126,-844v-33,43,-113,-13,-73,-55r186,-195v21,-27,66,-29,92,-1r185,195v35,32,-9,87,-54,68v-6,-2,-13,-7,-18,-12r-159,-168","w":610},"_":{"d":"178,241v-39,0,-59,-23,-59,-69v0,-42,20,-63,59,-63r975,0v39,0,59,22,59,66v0,44,-20,66,-59,66r-975,0","w":1370},"`":{"d":"10,-971v-40,-40,21,-103,61,-61r196,207v30,28,-3,67,-36,67v-11,0,-21,-4,-28,-11","w":317},"a":{"d":"919,-382r-580,0v-99,0,-149,31,-149,93r0,95v0,60,53,90,158,90r418,0v102,0,153,-45,153,-136r0,-142xm1039,-202v0,135,-99,202,-296,202r-370,0v-207,0,-311,-65,-311,-196r0,-90v0,-135,102,-202,305,-202r551,0v-8,-68,-60,-102,-155,-102r-153,0v-30,0,-45,-18,-45,-53v0,-34,15,-51,45,-51r133,0v197,0,296,69,296,207r0,285","w":1191,"k":{"v":45}},"b":{"d":"920,-475v0,-77,-66,-115,-199,-115r-487,0r0,381v0,70,69,105,208,105r303,0v117,0,175,-38,175,-114r0,-257xm1044,-215v0,143,-115,215,-346,215r-232,0v-239,0,-358,-70,-358,-209r0,-650v0,-37,21,-56,63,-56v42,0,63,19,63,56r0,165r464,0v231,0,346,72,346,215r0,264","w":1191},"c":{"d":"451,0v-229,0,-343,-68,-343,-205r0,-285v0,-136,104,-204,312,-204r465,0v39,0,58,17,58,51v0,35,-19,53,-58,53r-483,0v-111,0,-167,32,-167,96r0,283v0,71,64,107,192,107r458,0v36,0,54,18,54,54v0,33,-18,50,-54,50r-434,0","w":1042},"d":{"d":"920,-589r-492,0v-130,0,-195,41,-195,123r0,248v0,76,62,114,187,114r291,0v139,0,209,-38,209,-114r0,-371xm1045,-202v0,135,-118,202,-355,202r-235,0v-231,0,-347,-64,-347,-191r0,-290v0,-142,115,-213,346,-213r466,0r0,-165v0,-37,20,-56,61,-56v43,0,64,19,64,56r0,657","w":1192,"k":{"'":45,"\"":45}},"e":{"d":"233,-393r679,0r0,-104v0,-62,-48,-93,-145,-93r-339,0v-130,0,-195,33,-195,99r0,98xm1034,-343v0,39,-18,59,-55,59r-746,0r0,85v0,63,65,95,195,95r553,0v35,0,53,17,53,51v0,35,-18,53,-53,53r-520,0v-235,0,-353,-72,-353,-215r0,-266v0,-142,116,-213,349,-213r285,0v195,0,292,61,292,184r0,167","w":1176,"k":{"v":91}},"f":{"d":"383,-801v-95,0,-143,36,-144,107r249,0v31,0,46,17,46,51v0,35,-15,53,-46,53r-249,0r0,540v0,37,-21,56,-62,56v-42,0,-63,-19,-63,-56r0,-643v0,-140,98,-210,295,-210v58,0,125,-15,125,51v0,74,-88,51,-151,51","w":553},"g":{"d":"907,-104r0,-371v0,-77,-68,-115,-203,-115r-283,0v-125,0,-187,34,-187,103r0,276v0,71,72,107,217,107r456,0xm1034,-10v0,138,-115,207,-344,207v-65,0,-159,21,-159,-51v0,-79,107,-50,176,-53v139,-6,206,-24,203,-93r-434,0v-245,0,-368,-70,-368,-209r0,-275v0,-140,112,-210,335,-210r226,0v243,0,365,71,365,212r0,472","k":{"v":60,"'":91,"\"":91}},"h":{"d":"1034,-50v0,37,-21,56,-64,56v-41,0,-62,-19,-62,-56r0,-422v0,-79,-72,-118,-215,-118r-459,0r0,540v0,37,-21,56,-64,56v-41,0,-62,-19,-62,-56r0,-809v0,-37,21,-56,62,-56v43,0,64,19,64,56r0,165r422,0v252,0,378,73,378,220r0,424"},"i":{"d":"238,-795v0,45,-29,67,-88,67v-55,0,-83,-22,-83,-67v0,-43,28,-65,83,-65v59,0,88,22,88,65xm217,-50v0,37,-21,56,-63,56v-41,0,-61,-19,-61,-56r0,-550v0,-35,20,-53,59,-53v43,0,65,18,65,53r0,550","w":343},"j":{"d":"285,-798v0,45,-28,67,-85,67v-57,0,-85,-22,-85,-67v0,-43,28,-65,85,-65v57,0,85,22,85,65xm264,-53v0,135,-94,203,-282,203v-63,0,-152,21,-152,-50v0,-78,94,-54,161,-54v98,0,147,-29,147,-87r0,-559v0,-35,21,-53,62,-53v43,0,64,18,64,53r0,547","w":391},"k":{"d":"792,-696v45,-24,101,28,76,74v-4,8,-12,15,-23,20r-518,243r520,262v52,23,19,107,-34,103v-9,0,-19,-2,-29,-7r-552,-286r0,237v0,37,-20,56,-61,56v-42,0,-63,-19,-63,-56r0,-809v0,-37,21,-56,63,-56v41,0,61,19,61,56r0,433","w":959},"l":{"d":"234,-50v0,37,-21,56,-62,56v-43,0,-64,-19,-64,-56r0,-809v0,-37,21,-56,62,-56v43,0,64,19,64,56r0,809","w":380},"m":{"d":"1386,-50v0,37,-22,56,-65,56v-41,0,-62,-19,-62,-56r0,-441v0,-66,-68,-99,-205,-99v-162,0,-243,40,-243,119r0,421v0,37,-21,56,-62,56v-43,0,-64,-19,-64,-56r0,-422v0,-79,-81,-118,-243,-118v-139,0,-208,33,-208,100r0,440v0,37,-21,56,-64,56v-41,0,-62,-19,-62,-56r0,-424v0,-147,111,-220,334,-220v164,0,267,38,310,115v45,-77,145,-115,302,-115v221,0,332,73,332,220r0,424","w":1533},"n":{"d":"1023,-50v0,37,-21,56,-63,56v-43,0,-64,-19,-64,-56r0,-457v0,-55,-57,-83,-172,-83r-315,0v-117,0,-175,28,-175,84r0,456v0,37,-21,56,-62,56v-43,0,-64,-19,-64,-56r0,-454v0,-127,112,-190,335,-190r245,0v223,0,335,63,335,188r0,456","w":1170,"k":{"'":91,"\"":91}},"o":{"d":"894,-490v0,-67,-59,-100,-178,-100r-289,0v-129,0,-193,37,-193,112r0,267v0,71,65,107,194,107r289,0v118,0,177,-36,177,-107r0,-279xm1023,-211v0,141,-109,211,-326,211r-255,0v-223,0,-334,-70,-334,-211r0,-267v0,-144,113,-216,338,-216r251,0v217,0,326,72,326,215r0,268","w":1170,"k":{"v":60,"'":91,"\"":91}},"p":{"d":"907,-494v0,-64,-67,-96,-201,-96r-279,0v-129,0,-193,33,-193,99r0,387r507,0v111,0,166,-35,166,-104r0,-286xm1034,-209v0,139,-105,209,-314,209r-486,0r0,156v0,38,-21,57,-64,57v-41,0,-62,-19,-62,-57r0,-650v0,-133,111,-200,334,-200r242,0v233,0,350,66,350,197r0,288"},"q":{"d":"235,-208v0,69,55,104,165,104r508,0r0,-387v0,-66,-64,-99,-192,-99r-280,0v-134,0,-201,32,-201,96r0,286xm108,-497v0,-131,117,-197,351,-197r240,0v223,0,335,67,335,200r0,650v0,38,-21,57,-63,57v-42,0,-63,-19,-63,-57r0,-156r-487,0v-209,0,-313,-70,-313,-209r0,-288"},"r":{"d":"416,-590v-120,0,-180,35,-180,105r0,435v0,37,-21,56,-64,56v-43,0,-64,-19,-64,-56r0,-435v-9,-156,153,-209,379,-209v32,0,48,17,48,52v0,69,-62,52,-119,52","w":612},"s":{"d":"921,-226v0,163,-70,226,-266,226r-533,0v-37,0,-55,-17,-55,-51v0,-35,18,-53,55,-53r555,0v95,-1,114,-36,114,-122v0,-51,-43,-76,-128,-76r-294,0v-217,-6,-293,-56,-293,-223v0,-113,93,-169,279,-169r147,0v37,0,56,17,56,52v0,35,-19,52,-56,52v-104,0,-302,-25,-302,66v0,95,26,118,147,118r300,0v183,0,274,60,274,180","w":1008,"k":{"e":14}},"t":{"d":"275,-590r0,540v0,37,-21,56,-62,56v-42,0,-63,-19,-63,-56r0,-540v-57,1,-116,8,-116,-53v0,-58,60,-52,116,-51r0,-165v0,-37,21,-56,64,-56v41,0,61,19,61,56r0,165r253,0v34,0,51,17,51,52v0,35,-17,52,-51,52r-253,0","w":608,"k":{"e":45,"a":137}},"u":{"d":"1043,-201v0,134,-118,201,-353,201r-218,0v-237,0,-356,-67,-356,-201r0,-450v0,-37,21,-56,62,-56v42,0,63,19,63,56r0,450v0,65,70,97,210,97r260,0v137,0,205,-32,205,-95r0,-452v0,-36,22,-54,65,-54v41,0,62,18,62,54r0,450","w":1194},"v":{"d":"983,-691v39,-50,145,9,97,70r-471,599v-27,35,-67,38,-95,2r-470,-601v-38,-45,20,-110,75,-85v8,4,15,10,21,17r422,552","w":1161,"k":{"o":45,"g":45,"e":60,"a":106,"A":168}},"w":{"d":"1267,-670v27,-56,142,-12,112,51r-274,580v-20,54,-137,58,-161,5r-233,-509r-239,509v-23,53,-138,54,-164,-2r-267,-578v-26,-53,35,-110,87,-81v9,5,17,14,22,25r246,527r238,-507v20,-58,123,-59,150,-1r240,508","w":1457},"x":{"d":"94,-596v-57,-35,-11,-120,54,-100v7,2,15,5,22,10r347,266r347,-266v40,-36,103,-1,102,47v0,16,-8,30,-25,43r-328,249r328,251v44,29,8,106,-37,105v-9,0,-20,-4,-32,-13r-355,-269r-354,269v-40,32,-90,-9,-89,-53v0,-16,7,-29,20,-39r326,-251","w":1073},"y":{"d":"1029,4v0,129,-96,193,-288,193r-158,0v-33,0,-49,-17,-49,-52v0,-35,16,-52,49,-52r169,0v102,-1,153,-29,151,-93r-464,0v-221,0,-331,-67,-331,-201r0,-450v0,-36,21,-54,63,-54v42,0,63,18,63,54r0,450v0,65,60,97,181,97r488,0r0,-547v0,-36,21,-54,63,-54v42,0,63,18,63,54r0,655","w":1175},"z":{"d":"166,0v-43,2,-81,-28,-81,-66v0,-21,13,-41,39,-59r681,-465r-636,0v-35,0,-52,-17,-52,-52v0,-35,17,-52,52,-52r753,0v76,-8,103,83,43,124r-682,466r701,0v33,0,50,17,50,51v0,35,-17,53,-50,53r-818,0","w":1149},"{":{"d":"268,83v-105,0,-173,-27,-173,-94r0,-363v0,-18,-5,-27,-16,-27v-39,0,-58,-19,-58,-58v0,-38,19,-57,58,-57v11,0,16,-7,16,-22r0,-360v-4,-68,70,-95,181,-95v36,0,54,19,54,56v0,54,-46,56,-99,53v-16,0,-24,6,-24,19r0,317v0,37,-24,68,-73,93v49,27,73,58,73,94r0,331v3,8,45,4,61,5v34,0,51,18,51,54v0,36,-17,54,-51,54","w":396},"|":{"d":"259,159v0,45,-24,67,-72,67v-43,0,-65,-22,-65,-67r0,-1104v0,-37,23,-55,70,-55v45,0,67,18,67,55r0,1104","w":428},"}":{"d":"103,83v-43,0,-67,-12,-67,-54v0,-52,37,-54,89,-54v15,0,23,-2,23,-5r0,-331v0,-38,24,-69,73,-94v-49,-23,-73,-54,-73,-93r0,-317v1,-28,-42,-19,-68,-19v-37,0,-55,-18,-55,-53v-1,-43,25,-56,71,-56v110,0,165,32,165,95r0,360v0,15,5,22,16,22v38,0,57,19,57,57v0,39,-19,58,-57,58v-11,0,-16,9,-16,27r0,363v0,63,-53,94,-158,94","w":396},"~":{"w":2048},"\u00a0":{"w":506}}});
Cufon.registerFont({"w":1159,"face":{"font-family":"SLW","font-weight":700,"font-stretch":"normal","units-per-em":"2048","panose-1":"0 0 0 0 0 0 0 0 0 0","ascent":"1638","descent":"-410","cap-height":"3","bbox":"-192 -1081.75 1594.73 205","underline-thickness":"20","underline-position":"-132","unicode-range":"U+0020-U+007E"},"glyphs":{" ":{"w":466},"!":{"d":"185,-218v-68,0,-102,-28,-102,-84r0,-525v0,-57,32,-86,97,-86v65,0,98,29,98,86r0,525v0,56,-31,84,-93,84xm295,-89v0,59,-39,88,-116,88v-75,0,-112,-29,-112,-88v0,-58,37,-87,112,-87v77,0,116,29,116,87","w":466},"\"":{"d":"236,-625v0,46,-24,69,-72,69v-47,0,-70,-23,-70,-69r0,-208v0,-46,23,-69,69,-69v49,0,73,23,73,69r0,208xm428,-625v0,46,-24,69,-71,69v-47,0,-71,-23,-71,-69r0,-208v0,-46,23,-69,70,-69v48,0,72,23,72,69r0,208","w":586},"#":{"d":"376,-410r210,0r28,-88r-211,0xm648,-72v-23,81,-179,41,-154,-40r49,-162r-211,0r-62,202v-9,30,-30,46,-64,46v-55,0,-108,-39,-89,-98r48,-150v-76,0,-152,14,-152,-71v0,-93,113,-59,194,-65r28,-88v-79,-2,-167,19,-167,-71v0,-96,125,-57,208,-65r65,-206v21,-79,182,-42,157,37r-52,169r209,0r65,-206v8,-31,33,-47,66,-47v54,0,105,39,87,97r-48,156v67,-2,128,-6,128,65v0,47,-21,71,-63,71r-108,0r-28,88v70,0,144,-12,144,65v0,98,-105,66,-188,71","w":1045},"$":{"d":"211,-597v0,32,49,48,146,48r51,0r0,-189v-79,-2,-197,-7,-197,60r0,81xm604,-380r0,209r68,0v90,0,135,-17,135,-50r0,-99v0,-40,-56,-60,-169,-60r-34,0xm604,0v-1,53,-34,80,-98,80v-63,0,-96,-27,-98,-80r-311,0v-55,0,-82,-29,-82,-87v0,-56,27,-84,82,-84r311,0r0,-209v-244,6,-389,-70,-389,-233v0,-230,128,-307,390,-296v6,-48,39,-72,100,-72v63,0,95,30,95,89r0,343v256,-3,396,78,396,247v0,235,-120,307,-396,302","w":1096},"%":{"d":"1128,-301v7,-47,-102,-42,-162,-41v-69,0,-103,17,-103,52r0,97v-9,49,112,45,179,45v57,0,86,-15,86,-45r0,-108xm441,-723v7,-45,-104,-40,-163,-39v-67,0,-101,17,-101,52r0,97v-9,52,111,48,179,48v57,0,85,-16,85,-48r0,-110xm380,-27v-52,56,-158,-5,-134,-85v2,-8,8,-14,14,-21r686,-769v48,-53,138,-3,138,63v0,16,-6,30,-17,43xm1277,-195v6,130,-115,177,-295,177v-176,0,-264,-59,-264,-177r0,-92v-6,-132,117,-183,304,-183v170,0,255,61,255,182r0,93xm590,-616v6,131,-115,178,-295,178v-176,0,-264,-59,-264,-178r0,-92v-6,-133,117,-183,304,-183v170,0,255,61,255,182r0,93","w":1398},"&":{"d":"431,-738v-89,4,-101,6,-101,74v0,15,9,29,27,40r105,64r231,-77v27,-8,26,-34,25,-67v0,-23,-31,-34,-93,-34r-194,0xm763,-171r-322,-198v-59,25,-136,43,-183,78v-25,18,-16,47,-16,83v0,25,53,37,158,37r363,0xm1131,-155v73,39,34,164,-50,159v-53,-3,-84,-40,-124,-59v-116,76,-346,55,-537,55v-265,0,-380,-69,-372,-258v6,-149,99,-189,216,-230v-91,-54,-126,-107,-126,-205v0,-144,105,-216,316,-216r153,0v214,3,313,71,306,238v-4,110,-50,170,-147,196r-126,35r271,154v11,-53,8,-83,8,-138v0,-57,31,-86,93,-86v95,0,98,61,98,153v0,69,-11,126,-33,171","w":1324},"'":{"d":"238,-625v0,46,-24,69,-71,69v-47,0,-71,-23,-71,-69r0,-208v0,-46,23,-69,70,-69v48,0,72,23,72,69r0,208","w":414},"(":{"d":"306,-833v-50,0,-75,13,-75,40r0,661v0,37,25,56,75,56v41,0,62,23,62,68v0,51,-26,67,-78,67v-145,0,-218,-63,-218,-188r0,-664v-2,-125,84,-176,234,-176v41,0,62,22,62,67v0,46,-21,69,-62,69","w":506},")":{"d":"125,-833v-42,0,-63,-23,-63,-69v-1,-54,31,-67,86,-67v141,0,211,59,211,176r0,664v1,131,-81,188,-234,188v-42,0,-63,-22,-63,-67v0,-45,21,-68,63,-68v50,0,75,-19,75,-56r0,-661v0,-27,-25,-40,-75,-40","w":504},"*":{"d":"169,-454v-71,56,-165,-52,-125,-132v33,-37,106,-39,157,-59r-122,-39v-87,-29,-30,-172,47,-172v15,0,30,6,43,18r89,84r-27,-128v2,-51,41,-73,92,-73v54,0,104,28,89,86r-29,115r87,-81v72,-58,166,51,127,133v-32,34,-103,38,-151,57v57,27,159,16,159,96v0,69,-75,151,-134,94r-89,-85r32,145v-4,87,-186,77,-186,-5v0,-51,23,-92,33,-140","w":711},"+":{"d":"486,-453v0,91,-96,63,-174,67v3,75,4,137,-75,137v-82,0,-83,-60,-79,-137v-77,-3,-171,23,-171,-67v0,-88,93,-63,169,-66v-3,-75,-4,-133,77,-133v82,0,83,57,79,133v77,4,174,-24,174,66","w":543},",":{"d":"55,-169v5,-84,186,-97,161,4r-53,209v-6,39,-43,63,-81,63v-36,0,-73,-33,-65,-74","w":296},"-":{"d":"156,-321v-43,0,-65,-21,-65,-62v0,-43,22,-64,65,-64r444,0v40,0,60,21,60,62v0,43,-20,64,-60,64r-444,0","w":823},".":{"d":"264,-82v0,54,-33,81,-99,81v-65,0,-98,-27,-98,-81v0,-53,33,-79,98,-79v66,0,99,26,99,79","w":405},"\/":{"d":"775,-882v50,-54,160,1,129,78v-4,9,-10,18,-19,27r-743,755v-45,45,-123,5,-122,-56v0,-18,7,-34,22,-49","w":994},"0":{"d":"909,-639v0,-66,-48,-99,-145,-99r-358,0v-97,0,-146,33,-146,99r-1,392v0,51,49,76,147,76r358,0v97,0,145,-26,145,-77r0,-391xm1105,-284v0,189,-125,284,-374,284r-292,0v-250,0,-375,-88,-375,-263r0,-362v0,-189,126,-284,377,-284r292,0v248,0,372,95,372,284r0,341","w":1276,"k":{"Y":70,"W":70,"V":70}},"1":{"d":"260,-82v0,57,-33,86,-99,86v-65,0,-97,-29,-97,-86r0,-745v0,-57,33,-86,98,-86v65,0,98,29,98,86r0,745","w":430},"2":{"d":"1164,-665v0,212,-88,300,-335,300r-405,0v-110,0,-165,23,-165,70r0,124r826,0v53,0,80,28,80,85v0,57,-27,86,-80,86r-945,0v-51,0,-76,-26,-76,-78r0,-224v0,-155,128,-233,383,-233r398,0v81,0,122,-20,122,-60r0,-86v0,-38,-37,-57,-112,-57r-211,0v-58,0,-87,-28,-87,-85v0,-57,29,-86,87,-86r193,0v218,0,327,81,327,244","w":1336},"3":{"d":"1069,-680v0,111,-21,164,-111,212v89,50,111,106,111,219v0,166,-124,249,-372,249r-653,0v-57,0,-86,-29,-86,-86v0,-57,29,-85,86,-85r674,0v103,0,155,-24,155,-72r0,-78v-5,-37,-55,-55,-150,-55r-679,0v-58,0,-87,-28,-87,-85v0,-59,29,-88,87,-88r679,0v100,0,150,-19,150,-56r0,-81v6,-67,-217,-50,-313,-52v-59,0,-88,-28,-88,-85v0,-57,29,-86,88,-86r127,0v255,0,382,76,382,229","w":1239},"4":{"d":"1187,-82v0,57,-33,86,-98,86v-65,0,-98,-29,-98,-86r0,-138r-864,0v-67,0,-100,-35,-100,-104r0,-503v0,-57,32,-86,97,-86v64,0,96,29,96,86r0,415r771,0r0,-415v0,-57,33,-86,98,-86v65,0,98,29,98,86r0,745","w":1358},"5":{"d":"1146,-239v0,159,-131,239,-393,239r-650,0v-56,0,-84,-28,-84,-85v0,-57,28,-86,84,-86r659,0v126,0,189,-23,189,-68r0,-127v0,-52,-49,-78,-146,-78r-702,0v-50,0,-75,-25,-75,-76r0,-312v0,-51,25,-77,75,-77r492,0v57,0,86,29,86,86v0,57,-29,85,-86,85r-373,0r0,124r560,0v243,0,364,83,364,248r0,127","w":1316},"6":{"d":"1008,-371v0,-50,-57,-75,-171,-75r-576,0r0,192v0,55,56,83,167,83r437,0v95,0,143,-23,143,-69r0,-131xm1202,-239v0,159,-119,239,-358,239r-398,0v-255,0,-382,-79,-382,-236r0,-430v0,-161,145,-242,436,-242r116,0v57,0,85,28,85,85v0,57,-28,85,-85,85r-169,0v-140,6,-197,23,-186,121r553,0v259,0,388,81,388,243r0,135","w":1335},"7":{"d":"951,-909v96,-10,137,98,83,165r-574,711v-46,65,-163,21,-159,-62v0,-21,7,-40,22,-59r469,-584r-746,0v-55,0,-83,-30,-83,-89v0,-55,28,-82,83,-82r905,0","w":1148},"8":{"d":"973,-677v0,-41,-47,-61,-141,-61r-415,0v-95,0,-142,20,-142,61r0,73v0,36,46,54,137,54r420,0v94,0,141,-17,141,-52r0,-75xm990,-303v0,-49,-53,-73,-159,-73r-414,0v-106,0,-159,24,-159,73r0,77v0,37,53,55,159,55r414,0v106,0,159,-19,159,-56r0,-76xm1186,-277v0,194,-91,277,-321,277r-480,0v-231,-3,-321,-83,-321,-277v0,-85,41,-147,124,-187v-87,-42,-108,-96,-108,-204v0,-161,108,-241,323,-241r442,0v234,3,322,87,322,290v0,70,-35,121,-105,154v83,39,124,101,124,188","w":1357},"9":{"d":"905,-465r0,-189v0,-56,-54,-84,-163,-84r-384,0v-91,0,-136,23,-136,69r0,131v0,49,57,73,171,73r512,0xm1098,-244v0,163,-121,244,-363,244r-146,0v-59,0,-88,-29,-88,-86v0,-57,29,-85,88,-85r122,0v148,-7,206,-20,194,-121r-490,0v-259,0,-388,-81,-388,-243r0,-137v0,-158,119,-237,358,-237r335,0v252,0,378,91,378,273r0,392","w":1269},":":{"d":"275,-103v0,53,-33,79,-98,79v-65,0,-98,-26,-98,-79v0,-53,32,-80,96,-80v67,0,100,27,100,80xm275,-436v0,53,-33,80,-98,80v-65,0,-98,-27,-98,-80v0,-53,32,-79,96,-79v67,0,100,26,100,79","w":428},";":{"d":"241,-433v0,53,-32,79,-97,79v-65,0,-98,-26,-98,-79v0,-54,32,-81,96,-81v66,0,99,27,99,81xm64,-169v5,-84,185,-97,160,4r-53,209v-7,38,-43,62,-80,63v-36,1,-73,-33,-65,-74","w":324},"<":{"d":"486,-277v81,27,43,166,-46,143v-6,-1,-13,-4,-20,-7r-408,-201v-51,-23,-49,-102,2,-126r399,-189v66,-35,144,35,105,102v-7,11,-19,21,-36,28r-273,123","w":650},"=":{"d":"155,-239v-41,0,-62,-22,-62,-65v0,-42,21,-63,62,-63r444,0v41,0,61,22,61,65v0,42,-20,63,-61,63r-444,0xm155,-451v-41,0,-62,-22,-62,-66v0,-41,21,-61,62,-61r444,0v44,0,66,22,66,65v0,41,-22,62,-66,62r-444,0","w":828},">":{"d":"93,-524v-74,-25,-51,-148,28,-146v12,0,24,3,37,10r408,201v54,21,52,101,-1,126r-401,189v-54,26,-113,-10,-114,-66v0,-29,15,-50,46,-64r272,-124","w":649},"?":{"d":"186,-231v-65,0,-98,-28,-98,-83v0,-127,76,-191,229,-191v89,0,274,10,274,-50r0,-112v0,-47,-49,-71,-148,-71v-79,0,-137,-5,-137,-84v0,-71,42,-87,116,-87v237,0,355,86,355,259r0,80v0,155,-119,233,-357,233r-106,0v-24,0,-36,10,-36,30v0,51,-31,76,-92,76xm296,-89v0,59,-39,88,-116,88v-75,0,-112,-29,-112,-88v0,-58,37,-87,112,-87v77,0,116,29,116,87","w":948},"@":{"d":"432,-395v-5,42,96,34,148,34r0,-192v-54,1,-148,-9,-148,37r0,121xm958,-392v0,111,-58,166,-175,166r-274,0v-144,0,-216,-51,-216,-152r0,-151v0,-99,71,-149,213,-149r161,0v37,0,56,19,56,56r0,255v33,-3,84,13,84,-25r0,-332v0,-21,-25,-31,-76,-31r-404,0v-66,0,-99,21,-99,62r1,464v-8,75,92,75,177,75v46,0,69,21,69,62v0,69,-47,74,-116,74v-185,0,-277,-70,-277,-211r0,-464v0,-132,81,-198,244,-198r405,0v151,0,227,62,227,187r0,312","w":1110},"A":{"d":"394,-394r414,0r-205,-320xm1193,-138v56,71,-31,174,-123,131v-13,-6,-25,-17,-36,-32r-129,-189r-605,0r-128,193v-47,75,-205,28,-172,-77v2,-8,7,-16,12,-25r481,-719v28,-51,105,-80,169,-46v19,10,36,25,49,46","w":1313,"k":{"v":140,"Y":183,"W":183,"V":183,"T":140,"L":84}},"B":{"d":"264,-738r0,203r496,0v96,0,144,-22,144,-66r0,-69v0,-45,-44,-68,-131,-68r-509,0xm259,-365r0,194r540,0v124,-3,134,-22,134,-122v0,-48,-56,-72,-168,-72r-506,0xm1102,-657v0,104,-23,152,-109,199v104,48,136,102,136,219v0,159,-110,239,-330,239r-659,0v-51,0,-76,-26,-76,-78r0,-754v0,-51,25,-77,76,-77r631,0v221,0,331,84,331,252","w":1299},"C":{"d":"433,-738v-116,0,-174,23,-174,70r0,411v0,57,65,86,194,86r460,0v55,0,82,28,82,85v0,57,-27,86,-82,86r-477,0v-248,0,-372,-82,-372,-246r0,-431v0,-155,122,-232,365,-232r484,0v55,0,82,28,82,85v0,57,-27,86,-82,86r-480,0","w":1120},"D":{"d":"943,-657v0,-54,-56,-81,-167,-81r-515,0r0,567r513,0v113,0,169,-31,169,-93r0,-393xm1138,-255v0,170,-121,255,-362,255r-636,0v-51,0,-76,-26,-76,-78r0,-754v0,-51,25,-77,76,-77r639,0v239,0,359,81,359,243r0,411","w":1308},"E":{"d":"261,-535r701,0v53,0,79,28,79,85v0,57,-26,85,-79,85r-701,0r0,113v0,54,56,81,169,81r532,0v53,0,80,29,80,86v0,57,-27,85,-80,85r-537,0v-241,0,-361,-79,-361,-238r0,-428v0,-162,124,-243,372,-243r147,0v53,0,79,29,79,87v0,56,-26,84,-79,84r-100,0v-148,0,-222,27,-222,81r0,122","w":1158,"k":{"v":41,"Y":126,"W":126,"V":126,"T":169}},"F":{"d":"261,-365r0,283v0,57,-32,86,-97,86v-67,0,-100,-29,-100,-86r0,-581v0,-164,121,-246,364,-246r113,0v56,0,84,28,84,83v0,59,-28,88,-84,88r-101,0v-119,0,-179,27,-179,82r0,121r697,0v55,0,83,28,83,83v0,58,-28,87,-83,87r-697,0","w":1102},"G":{"d":"1125,-240v0,160,-115,240,-346,240r-340,0v-250,0,-375,-80,-375,-239r0,-433v0,-158,126,-237,378,-237r132,0v54,0,81,29,81,86v0,57,-27,85,-81,85r-93,0v-147,0,-220,25,-220,75r0,415v0,51,60,77,181,77r337,0v99,0,149,-22,149,-66r0,-222v0,-58,33,-87,98,-87v66,0,99,29,99,87r0,219","w":1261},"H":{"d":"1150,-82v0,57,-33,86,-98,86v-64,0,-96,-29,-96,-86r0,-283r-682,0r0,283v0,57,-33,86,-99,86v-65,0,-98,-29,-98,-86r0,-745v0,-57,33,-86,100,-86v65,0,97,29,97,86r0,292r682,0r0,-292v0,-57,32,-86,95,-86v66,0,99,29,99,86r0,745","w":1334},"I":{"d":"261,-82v0,57,-33,85,-98,85v-66,0,-99,-28,-99,-85r0,-746v0,-57,34,-86,101,-86v64,0,96,29,96,86r0,746","w":432},"J":{"d":"465,-276v8,207,-163,276,-424,276v-56,0,-84,-28,-84,-85v0,-57,28,-86,84,-86r71,0v105,0,157,-35,157,-105r0,-551v0,-57,33,-86,98,-86v65,0,98,29,98,86r0,551","w":635},"K":{"d":"836,-902v78,-47,181,35,136,119v-7,13,-21,23,-38,32r-551,289r571,299v29,15,48,39,49,76v1,69,-73,114,-136,79r-610,-342r0,268v0,57,-32,86,-95,86v-65,0,-98,-29,-98,-86r0,-745v0,-57,33,-86,99,-86v63,0,94,29,94,86r0,258","w":1136},"L":{"d":"488,0v-283,0,-424,-83,-424,-249r0,-579v0,-57,33,-86,99,-86v65,0,98,29,98,86r0,570v0,58,73,87,220,87r489,0v55,0,83,30,83,89v0,55,-28,82,-83,82r-482,0","w":1106,"k":{"o":27,"g":27,"Y":197,"W":197,"V":197,"O":41,"A":-49,"0":41}},"M":{"d":"1496,-82v0,57,-33,86,-99,86v-63,0,-94,-29,-94,-86r0,-505r-405,535v-52,75,-173,72,-228,0r-412,-535r0,505v0,57,-32,86,-95,86v-66,0,-99,-29,-99,-86r0,-725v-13,-127,155,-126,215,-50r507,647r498,-653v25,-33,60,-50,105,-50v71,0,107,36,107,108r0,723","w":1667},"N":{"d":"64,-801v-8,-106,129,-140,199,-78r674,598r0,-546v0,-57,33,-86,98,-86v64,0,96,29,96,86r0,716v10,107,-125,146,-194,84r-679,-608r0,553v0,57,-32,86,-96,86v-65,0,-98,-29,-98,-86r0,-719","w":1301},"O":{"d":"911,-640v0,-65,-56,-98,-168,-98r-301,0v-121,0,-181,33,-181,98r0,374v0,63,60,95,181,95r293,0v117,0,176,-32,176,-95r0,-374xm1106,-254v0,169,-135,254,-404,254r-234,0v-269,0,-404,-84,-404,-253r0,-401v0,-170,135,-255,404,-255r234,0v269,0,404,85,404,255r0,400","w":1276,"k":{"Y":70,"W":70,"V":70}},"P":{"d":"942,-668v0,-47,-53,-70,-160,-70r-521,0r0,257r514,0v111,0,167,-25,167,-74r0,-113xm1134,-540v0,154,-125,231,-375,231r-498,0r0,227v0,57,-33,86,-98,86v-66,0,-99,-29,-99,-86r0,-750v0,-51,25,-77,76,-77r626,0v245,0,368,74,368,222r0,147","w":1231},"Q":{"d":"935,-655v0,-55,-67,-83,-200,-83r-279,0v-130,0,-195,28,-195,83r0,397v0,58,65,87,194,87r335,0v97,0,145,-29,145,-86r0,-398xm1069,18v0,69,-76,113,-139,76r-169,-97r-341,0v-237,0,-356,-83,-356,-250r0,-407v0,-166,119,-249,356,-249r349,0v241,0,362,82,362,246r0,410v0,88,-37,154,-110,197v30,15,48,38,48,74","w":1301},"R":{"d":"934,-656v0,-55,-56,-82,-169,-82r-504,0r0,235r524,0v99,0,149,-21,149,-62r0,-91xm936,-4r-675,-333r0,255v0,57,-32,86,-97,86v-67,0,-100,-29,-100,-86r0,-750v0,-51,25,-77,76,-77r606,0v255,0,382,84,382,251r0,91v0,156,-118,234,-354,234r-137,0r374,164v110,51,30,217,-75,165","w":1225},"S":{"d":"1012,-228v0,152,-116,228,-348,228r-555,0v-55,0,-82,-29,-82,-87v0,-56,27,-84,82,-84r571,0v117,-3,136,-29,136,-126v0,-55,-56,-83,-169,-83r-253,0v-241,0,-362,-70,-362,-211r0,-86v0,-155,107,-232,322,-232r140,0v55,0,82,29,82,87v0,56,-27,84,-82,84v-105,0,-267,-26,-267,79v0,90,29,110,146,110r258,0v254,0,381,77,381,231r0,90","w":1145,"k":{"v":41,"Y":126,"W":126,"V":126,"T":169}},"T":{"d":"545,-738r0,656v0,57,-32,86,-97,86v-65,0,-98,-29,-98,-86r0,-656r-308,0v-54,0,-81,-29,-81,-88v0,-55,27,-83,81,-83r813,0v53,0,80,28,80,83v0,59,-27,88,-80,88r-310,0","w":1001,"k":{"y":112,"u":112,"o":154,"g":154,"e":140,"a":211,"A":154}},"U":{"d":"1125,-266v0,177,-149,266,-447,266r-188,0v-284,0,-426,-89,-426,-266r0,-561v0,-57,33,-86,98,-86v66,0,99,29,99,86r0,543v0,75,70,113,211,113r227,0v155,0,232,-38,232,-113r0,-543v0,-57,33,-86,99,-86v63,0,95,29,95,86r0,561","w":1296},"V":{"d":"11,-769v-55,-80,38,-174,127,-133v13,7,24,19,34,34r430,669r424,-668v38,-73,182,-48,180,44v0,17,-6,34,-18,52r-478,714v-29,51,-105,78,-170,47v-18,-9,-35,-25,-49,-46","w":1305,"k":{"y":98,"u":98,"o":126,"g":126,"e":140,"a":197,"S":27,"O":70,"A":183,"0":70}},"W":{"d":"1404,-860v35,-95,229,-42,184,58r-330,732v-23,61,-112,93,-178,54v-21,-12,-36,-30,-46,-53r-238,-571r-246,573v-20,59,-113,90,-175,51v-20,-12,-36,-30,-47,-54r-324,-717v-32,-87,61,-154,143,-113v15,8,27,21,35,40r258,607r243,-581v21,-64,107,-100,175,-60v20,12,35,30,45,53r247,587","w":1693,"k":{"y":98,"u":98,"o":126,"g":126,"e":140,"a":197,"S":27,"O":70,"A":183,"0":70}},"X":{"d":"1046,-116v36,85,-89,155,-155,96r-361,-324r-361,324v-55,48,-161,6,-161,-67v0,-20,10,-39,29,-56r366,-312r-358,-305v-20,-16,-32,-35,-33,-65v-1,-77,102,-115,158,-64r360,325r360,-324v61,-60,194,5,151,97v-5,11,-14,22,-27,33r-358,303r366,310v11,9,19,19,24,29","w":1167},"Y":{"d":"19,-763v-66,-65,14,-178,106,-143v11,4,21,12,31,22r348,355r345,-354v55,-58,165,-17,167,61v0,21,-9,40,-27,58r-387,389r-1,295v0,58,-39,84,-97,84v-65,0,-98,-29,-98,-86r0,-293","w":1116,"k":{"y":98,"u":98,"o":126,"g":126,"e":140,"a":197,"S":27,"O":70,"A":183,"0":70}},"Z":{"d":"117,0v-98,5,-150,-114,-77,-178r642,-560r-582,0v-54,0,-81,-29,-81,-88v0,-55,27,-83,81,-83r794,0v84,-4,124,110,64,163r-659,575r609,0v53,0,80,28,80,85v0,57,-27,86,-80,86r-791,0","w":1099},"[":{"d":"256,-833r0,757v64,-4,112,4,112,68v0,99,-129,67,-215,67v-39,0,-58,-20,-58,-59r0,-910v0,-39,19,-59,58,-59v86,0,215,-33,215,65v0,67,-46,76,-112,71","w":435},"\\":{"d":"887,-129v58,49,1,155,-75,123v-9,-4,-17,-10,-26,-19r-743,-754v-50,-46,-14,-132,54,-131v21,0,41,9,58,26","w":995},"]":{"d":"-4,-8v0,-63,47,-73,112,-68r0,-757v-66,4,-112,-3,-112,-71v0,-99,130,-65,215,-65v39,0,58,20,58,59r0,910v4,92,-125,59,-205,59v-45,0,-68,-22,-68,-67","w":438},"^":{"d":"130,-801v-34,36,-110,11,-109,-42v0,-11,5,-23,15,-34r172,-180v30,-33,79,-33,110,0r171,179v39,34,4,96,-46,96v-19,0,-34,-6,-46,-19r-134,-142","w":598},"_":{"d":"164,205v-48,0,-72,-27,-72,-81v0,-51,24,-76,72,-76r900,0v47,0,71,26,71,78v0,53,-24,79,-71,79r-900,0","w":1299},"`":{"d":"-3,-954v-37,-33,-9,-102,39,-100v15,0,30,7,43,20r181,190v33,35,0,94,-47,93v-15,0,-28,-6,-38,-17","w":363},"a":{"d":"812,-352r-499,0v-69,0,-103,20,-103,59r0,70v0,37,37,56,111,56r386,0v70,0,105,-30,105,-90r0,-95xm994,-222v0,148,-103,222,-308,222r-342,0v-215,0,-322,-72,-322,-216r0,-83v0,-130,105,-195,316,-195r471,0v-14,-83,-151,-59,-246,-59v-51,0,-77,-27,-77,-80v0,-52,26,-78,77,-78r123,0v205,0,308,76,308,227r0,262","w":1169,"k":{"v":41}},"b":{"d":"813,-473v0,-47,-49,-71,-148,-71r-414,0r0,316v0,41,52,61,156,61r280,0v84,0,126,-23,126,-70r0,-236xm998,-233v0,155,-118,233,-354,233r-214,0v-244,0,-366,-76,-366,-228r0,-600v0,-57,31,-86,94,-86v62,0,93,29,93,86r0,117r393,0v236,0,354,78,354,234r0,244","w":1169},"c":{"d":"416,0v-235,0,-352,-75,-352,-224r0,-264v0,-149,108,-223,323,-223r429,0v59,0,89,28,89,83v0,56,-30,84,-89,84r-445,0v-79,0,-119,18,-119,53r0,261v0,42,47,63,142,63r422,0v57,0,85,29,85,86v0,54,-28,81,-85,81r-400,0","w":1032},"d":{"d":"813,-543r-418,0v-97,0,-145,26,-145,78r0,228v0,47,46,70,138,70r267,0v105,0,158,-23,158,-70r0,-306xm999,-222v0,148,-121,222,-363,222r-216,0v-237,0,-356,-70,-356,-211r0,-268v0,-155,118,-232,355,-232r394,0r0,-117v0,-57,31,-86,92,-86v63,0,94,29,94,86r0,606","w":1170},"e":{"d":"250,-433r556,0r0,-61v0,-33,-33,-50,-98,-50r-313,0v-97,0,-145,18,-145,55r0,56xm989,-378v0,59,-29,89,-86,89r-653,0r0,70v0,35,48,52,145,52r509,-1v56,0,84,28,84,83v0,56,-28,84,-84,84r-479,1v-241,0,-361,-78,-361,-233r0,-246v0,-155,119,-232,357,-232r264,0v203,0,304,69,304,206r0,127","w":1155,"k":{"v":84}},"f":{"d":"449,-747v-68,1,-179,-12,-181,45r182,0v51,0,77,26,77,78v0,53,-26,80,-77,80r-194,0r0,463v0,57,-31,86,-93,86v-62,0,-93,-29,-93,-86r0,-593v-8,-176,150,-230,378,-230v53,0,79,27,79,82v0,50,-26,75,-78,75","w":580},"g":{"d":"988,-44v0,151,-118,226,-353,226r-94,0v-59,0,-88,-28,-88,-83v0,-56,29,-84,88,-84v82,1,271,6,259,-42r0,-26r-362,0v-249,0,-374,-73,-374,-219r0,-209v0,-153,115,-230,344,-230r208,0v248,0,372,77,372,231r0,436xm800,-473v0,-47,-51,-71,-152,-71r-260,0v-92,0,-138,20,-138,60r0,210v0,42,55,63,165,63r385,0r0,-262","k":{"v":56}},"h":{"d":"989,-81v0,57,-31,86,-94,86v-62,0,-93,-29,-93,-86r0,-390v0,-49,-54,-73,-163,-73r-388,0r0,463v0,57,-31,86,-94,86v-62,0,-93,-29,-93,-86r0,-747v0,-57,31,-86,93,-86v63,0,94,29,94,86r0,117r354,0v256,0,384,79,384,238r0,392"},"i":{"d":"254,-828v0,59,-38,89,-115,89v-75,0,-112,-30,-112,-89v0,-57,37,-86,112,-86v77,0,115,29,115,86xm236,-81v0,57,-31,86,-94,86v-61,0,-92,-29,-92,-86r0,-481v0,-57,30,-85,90,-85v64,0,96,28,96,85r0,481","w":387},"j":{"d":"279,-84v0,149,-99,223,-296,223r-92,0v-55,0,-83,-28,-83,-83v0,-55,28,-83,83,-83v70,0,201,11,201,-46r0,-489v0,-57,31,-85,93,-85v63,0,94,28,94,85r0,478xm300,-828v0,59,-38,89,-115,89v-75,0,-113,-30,-113,-89v0,-57,38,-86,113,-86v77,0,115,29,115,86","w":431},"k":{"d":"715,-709v73,-35,157,43,116,119v-7,13,-20,23,-37,31r-412,193r415,211v28,14,45,35,45,70v0,65,-70,114,-134,81r-459,-238r0,161v0,57,-30,86,-91,86v-63,0,-94,-29,-94,-86r0,-747v0,-57,31,-86,94,-86v61,0,91,29,91,86r0,344","w":955},"l":{"d":"251,-81v0,57,-31,86,-92,86v-63,0,-95,-29,-95,-86r0,-747v0,-57,31,-86,93,-86v63,0,94,29,94,86r0,747","w":421},"m":{"d":"1314,-81v0,57,-32,86,-96,86v-62,0,-93,-29,-93,-86r0,-387v0,-51,-51,-76,-153,-76v-125,0,-188,25,-188,76r0,387v0,57,-31,86,-93,86v-63,0,-95,-29,-95,-86r0,-387v0,-51,-63,-76,-189,-76v-104,0,-156,25,-156,76r0,387v0,57,-32,86,-95,86v-61,0,-92,-29,-92,-86r0,-392v0,-159,114,-238,343,-238v135,0,231,28,286,84v56,-56,149,-84,279,-84v228,0,342,79,342,238r0,392","w":1484},"n":{"d":"979,-81v0,57,-31,86,-94,86v-63,0,-94,-29,-94,-86r0,-404v0,-39,-41,-59,-123,-59r-291,0v-84,0,-126,20,-126,60r0,403v0,57,-31,86,-92,86v-63,0,-95,-29,-95,-86r0,-419v0,-141,115,-211,345,-211r225,0v230,0,345,70,345,209r0,421","w":1149},"o":{"d":"789,-484v0,-40,-43,-60,-129,-60r-266,0v-95,0,-143,24,-143,71r0,241v0,43,48,65,144,65r267,0v85,0,127,-22,127,-65r0,-252xm979,-230v0,153,-112,230,-336,230r-236,0v-229,0,-343,-77,-343,-230r0,-246v0,-157,116,-235,348,-235r231,0v224,0,336,78,336,234r0,247","w":1149,"k":{"v":56}},"p":{"d":"801,-485v0,-39,-50,-59,-150,-59r-257,0v-95,0,-143,21,-143,62r0,315r433,0v78,0,117,-21,117,-62r0,-256xm989,-228v0,152,-108,228,-325,228r-413,0r0,109v0,58,-31,87,-94,87v-62,0,-93,-29,-93,-87r0,-600v0,-147,114,-220,343,-220r224,0v239,0,358,72,358,217r0,266"},"q":{"d":"252,-229v0,41,39,62,117,62r433,0r0,-316v0,-41,-47,-61,-142,-61r-258,0v-100,0,-150,19,-150,58r0,257xm64,-494v0,-145,120,-217,359,-217r222,0v229,0,344,73,344,220r0,600v0,58,-31,87,-93,87v-63,0,-94,-29,-94,-87r0,-109r-413,0v-217,0,-325,-76,-325,-228r0,-266"},"r":{"d":"383,-544v-87,0,-130,21,-130,62r0,401v0,57,-31,86,-94,86v-63,0,-95,-29,-95,-86r0,-401v-8,-168,151,-229,385,-229v53,0,80,28,80,84v0,55,-24,83,-73,83r-73,0","w":635},"s":{"d":"885,-244v0,172,-77,244,-281,244r-492,0v-57,0,-85,-27,-85,-82v0,-57,28,-85,85,-85r513,0v61,-1,69,-19,69,-72v0,-26,-28,-39,-83,-39r-271,0v-223,-5,-306,-66,-306,-241v0,-128,98,-192,294,-192r135,0v58,0,87,28,87,84v0,55,-29,83,-87,83r-164,0v-69,3,-79,9,-79,63v0,24,33,36,100,36r276,0v193,0,289,67,289,201","w":1000,"k":{"e":13}},"t":{"d":"289,-544r0,463v0,57,-31,86,-93,86v-62,0,-93,-29,-93,-86r0,-463v-68,5,-106,-20,-106,-84v0,-63,38,-88,106,-83r0,-117v0,-57,31,-86,94,-86v61,0,92,29,92,86r0,117r198,0v55,0,83,28,83,84v0,55,-28,83,-83,83r-198,0","w":632,"k":{"e":41,"a":126}},"u":{"d":"997,-221v0,147,-120,221,-361,221r-200,0v-243,0,-364,-74,-364,-221r0,-415v0,-58,31,-87,92,-87v63,0,94,29,94,87r0,406v0,42,53,63,158,63r239,0v103,0,154,-20,154,-61r0,-408v0,-57,32,-85,96,-85v61,0,92,28,92,85r0,415","w":1172},"v":{"d":"878,-693v52,-71,194,-13,160,83v-3,8,-8,17,-14,24r-435,552v-35,52,-107,47,-142,2r-434,-554v-43,-55,3,-140,75,-140v27,0,50,11,68,34r363,472","w":1141,"k":{"o":41,"g":41,"e":56,"a":98,"A":154}},"w":{"d":"1137,-669v38,-85,197,-34,173,63r-259,549v-26,73,-177,81,-212,5r-184,-400r-188,401v-30,75,-179,72,-214,-3r-247,-532v-37,-81,49,-165,130,-122v14,8,25,21,34,39r195,419r188,-400v26,-80,165,-79,202,-1r188,401","w":1414},"x":{"d":"64,-557v-78,-53,-17,-190,85,-155v10,3,20,9,29,16r299,230r299,-230v66,-55,186,15,142,105v-6,13,-16,24,-29,34r-265,202r265,204v61,43,24,158,-55,158v-16,0,-38,-8,-51,-18r-306,-232r-306,232v-70,50,-163,-23,-131,-109v4,-11,12,-22,24,-31r266,-204","w":1060},"y":{"d":"984,-85v0,178,-100,267,-300,267r-146,0v-54,0,-81,-28,-81,-84v0,-55,27,-83,81,-83r182,0v51,0,80,-23,86,-69r-401,0v-227,0,-341,-74,-341,-221r0,-361v0,-57,31,-85,94,-85v62,0,93,28,93,85r0,361v0,36,44,54,132,54r415,0r0,-415v0,-57,31,-85,92,-85v63,0,94,28,94,85r0,551","w":1155},"z":{"d":"153,0v-79,2,-132,-67,-97,-140v8,-15,21,-28,38,-40r533,-364r-472,0v-55,0,-83,-28,-83,-83v0,-56,28,-84,83,-84r696,0v105,-9,139,124,59,179r-535,365r532,0v55,0,82,28,82,83v0,56,-27,84,-82,84r-754,0","w":1131},"{":{"d":"2,-458v0,-62,68,-24,68,-89r0,-316v0,-71,61,-106,184,-106v45,0,68,23,68,70v0,62,-50,70,-114,66r0,292v0,34,-23,63,-68,87v45,24,68,53,68,86r0,292v62,-4,104,6,104,68v0,45,-22,67,-65,67v-118,0,-177,-35,-177,-104r0,-327v4,-60,-68,-25,-68,-86","w":400},"|":{"d":"256,111v0,53,-28,80,-84,80v-51,0,-77,-27,-77,-80r0,-1018v0,-45,27,-68,82,-68v53,0,79,23,79,68r0,1018","w":430},"}":{"d":"357,-458v0,61,-68,26,-68,86r0,327v0,69,-59,104,-178,104v-43,0,-64,-22,-64,-67v0,-62,41,-73,103,-68r0,-292v0,-33,23,-62,68,-86v-45,-24,-68,-53,-68,-87r0,-292v-64,4,-114,-3,-114,-66v0,-47,23,-70,68,-70v123,0,185,35,185,106r0,316v-7,65,68,27,68,89","w":400},"~":{"w":2048},"\u00a0":{"w":466}}});
/*!
 * The following copyright notice may not be removed under any circumstances.
 * 
 * Copyright:
 *  - Created with CR8type 2.0
 */
Cufon.registerFont({"w":1192,"face":{"font-family":"SLW","font-weight":100,"font-stretch":"normal","units-per-em":"2048","panose-1":"0 0 0 0 0 0 0 0 0 0","ascent":"1638","descent":"-410","cap-height":"3","bbox":"-158 -1124.75 1741.01 252","underline-thickness":"20","underline-position":"-132","unicode-range":"U+0020-U+007E"},"glyphs":{" ":{"w":528},"!":{"d":"275,-53v0,35,-24,52,-73,52v-46,0,-69,-17,-69,-52v0,-33,23,-49,69,-49v49,0,73,16,73,49xm255,-222v0,27,-18,40,-53,40v-32,0,-48,-13,-48,-40r0,-654v0,-25,17,-38,50,-38v34,0,51,13,51,38r0,654","w":408},"\"":{"d":"237,-647v0,25,-15,38,-46,38v-30,0,-45,-13,-45,-38r0,-236v0,-25,15,-38,44,-38v31,0,47,13,47,38r0,236xm425,-647v0,25,-15,38,-46,38v-30,0,-45,-13,-45,-38r0,-236v0,-25,15,-38,44,-38v31,0,47,13,47,38r0,236","w":575,"k":{"s":127,"r":63,"S":31}},"#":{"d":"696,-33v-17,49,-112,14,-97,-34r71,-223r-322,0r-80,257v-17,48,-113,16,-97,-34r70,-223r-154,0v-21,0,-32,-13,-32,-40v0,-23,11,-34,32,-34r177,0r56,-180r-169,0v-23,0,-34,-13,-34,-40v0,-23,11,-34,34,-34r192,0r81,-261v17,-47,114,-20,98,33r-71,228r321,0r81,-261v14,-49,112,-18,99,26r-72,235r127,0v21,0,32,11,32,34v0,27,-11,40,-32,40r-150,0r-57,180r145,0v21,0,32,11,32,34v0,27,-11,40,-32,40r-169,0xm372,-364r321,0r56,-180r-321,0","w":1103},"$":{"d":"624,0v0,50,9,91,-51,91v-59,0,-52,-40,-51,-91r-412,0v-22,0,-33,-13,-33,-38v0,-24,11,-36,33,-36r412,0r0,-356r-90,0v-257,-8,-350,-63,-350,-256v0,-149,102,-223,305,-223r135,0v-3,-49,-2,-81,54,-81v32,0,48,13,48,40r0,448r76,0v248,0,372,73,372,220r0,74v0,139,-111,208,-334,208r-114,0xm757,-74v142,0,213,-39,213,-116r0,-112v0,-85,-84,-128,-252,-128r-94,0r0,356r133,0xm183,-616v0,76,75,114,225,114r114,0r0,-333r-157,0v-121,0,-182,43,-182,128r0,91","w":1121},"%":{"d":"1081,-935v31,-35,87,7,87,43v0,10,-3,18,-10,25r-778,869v-30,33,-86,-9,-86,-43v0,-9,3,-17,10,-24xm1269,-278v0,-55,-44,-83,-133,-83r-81,0v-99,0,-149,32,-149,96r0,104v0,58,50,87,150,87r82,0v87,0,131,-29,131,-87r0,-117xm1117,0v-166,0,-301,-16,-304,-161r0,-104v-7,-123,121,-167,304,-167v166,0,249,55,249,166r0,105v0,107,-83,161,-249,161xm531,-755v0,-53,-44,-80,-133,-80r-81,0v-99,0,-149,31,-149,94r0,104v0,60,50,90,150,90r82,0v87,0,131,-30,131,-90r0,-118xm379,-476v-166,0,-301,-16,-304,-161r0,-104v-7,-123,121,-168,304,-168v166,0,249,55,249,166r0,106v0,107,-83,161,-249,161","w":1452},"&":{"d":"488,-835v-117,0,-175,30,-175,91v0,43,-7,80,15,108v45,53,129,86,188,127r288,-95v69,-21,69,-57,69,-133v0,-65,-55,-98,-166,-98r-219,0xm824,-74v76,0,136,-15,181,-46r-498,-304v-84,27,-189,68,-232,94v-66,40,-61,71,-61,155v0,67,80,101,239,101r371,0xm1250,-64v38,21,4,83,-35,68v-50,-19,-89,-53,-134,-78v-118,101,-387,74,-606,74v-241,0,-361,-63,-361,-190v0,-207,150,-235,305,-287r-138,-85v-50,-30,-65,-84,-65,-163v0,-123,99,-184,298,-184r173,0v204,4,294,58,287,209v-4,92,-47,139,-125,165r-246,80r457,277v39,-57,42,-145,40,-242v0,-25,15,-37,46,-37v68,0,50,58,50,113v0,89,-19,160,-58,213","w":1379},"'":{"d":"234,-647v0,25,-15,38,-45,38v-30,0,-45,-13,-45,-38r0,-236v0,-25,15,-38,44,-38v31,0,46,13,46,38r0,236","w":389,"k":{"s":127,"r":63,"S":31}},"(":{"d":"346,-923v-83,0,-125,28,-125,85r0,749v0,68,42,102,125,102v21,0,31,12,31,37v0,32,-17,37,-49,37v-138,0,-207,-58,-207,-173r0,-752v-3,-114,83,-165,225,-159v21,0,31,12,31,36v0,25,-10,38,-31,38","w":493},")":{"d":"142,-923v-21,0,-32,-13,-32,-38v-1,-35,23,-36,57,-36v133,0,199,53,199,159r0,752v2,121,-79,178,-224,173v-21,0,-32,-12,-32,-37v0,-25,10,-37,31,-37v83,0,125,-34,125,-102r0,-749v0,-57,-41,-85,-124,-85","w":490},"*":{"d":"163,-483v-45,26,-84,-31,-87,-76v0,-17,8,-28,24,-33r167,-49r51,-30r-50,-29r-167,-52v-14,-4,-23,-17,-23,-34v0,-46,40,-102,86,-74r126,120r51,29v3,-93,-31,-152,-40,-230v-3,-28,35,-40,64,-40v31,0,71,11,63,46r-41,169r0,55r45,-26r130,-120v45,-26,83,35,85,80v0,15,-7,25,-22,29v-73,25,-158,38,-216,77v59,39,142,53,214,79v15,5,22,16,22,34v0,41,-25,84,-64,84v-7,0,-14,-3,-20,-9r-127,-121r-47,-27v-4,96,31,153,39,234v3,28,-35,41,-64,41v-31,0,-70,-12,-62,-47r41,-169r0,-59r-50,28","w":725},"+":{"d":"510,-453v0,24,-9,36,-28,36r-169,0v-8,60,28,155,-45,155v-79,0,-40,-93,-49,-155r-165,0v-20,0,-30,-12,-30,-36v0,-23,10,-35,30,-35r163,0v8,-60,-29,-150,47,-150v79,0,40,89,49,150r169,0v19,0,28,12,28,35","w":535},",":{"d":"102,-125v0,-45,97,-68,103,-12r-59,237v-4,24,-28,40,-53,41v-23,1,-38,-16,-33,-41","w":255,"k":{"'":191,"\"":191}},"-":{"d":"177,-343v-23,0,-34,-10,-34,-31v0,-21,11,-32,34,-32r502,0v19,0,28,10,28,30v0,22,-9,33,-28,33r-502,0","w":852},".":{"d":"259,-53v0,35,-24,52,-72,52v-47,0,-71,-17,-71,-52v0,-33,24,-49,71,-49v48,0,72,16,72,49","w":379,"k":{"'":191,"\"":191}},"\/":{"d":"133,6v-25,26,-70,12,-70,-31v0,-12,4,-22,13,-31r829,-855v25,-28,86,-17,86,28v0,12,-6,24,-17,35","w":1045},"0":{"d":"1089,-663v0,-115,-75,-172,-224,-172r-405,0v-151,0,-226,57,-226,172r-1,443v0,97,76,146,227,146r405,0v149,0,224,-49,224,-147r0,-442xm1191,-261v0,174,-121,261,-364,261r-330,0v-243,0,-364,-79,-364,-238r0,-409v0,-175,122,-262,366,-262r331,0v241,0,361,87,361,262r0,386","w":1324,"k":{"Y":79,"W":79,"V":79,".":63,",":63,"'":79,"\"":79}},"1":{"d":"234,-33v0,25,-17,38,-52,38v-33,0,-49,-13,-49,-38r0,-843v0,-25,17,-38,50,-38v34,0,51,13,51,38r0,843","w":367},"2":{"d":"1258,-693v0,203,-78,280,-319,280r-459,0v-165,0,-247,43,-247,129r0,210r995,0v21,0,31,12,31,37v0,25,-10,37,-31,37r-1069,0v-17,0,-26,-9,-26,-28r0,-254v0,-136,124,-204,373,-204r450,0v133,0,199,-42,199,-127r0,-98v0,-83,-62,-124,-187,-124r-239,0v-25,0,-38,-12,-38,-37v0,-25,13,-37,38,-37r219,0v207,0,310,72,310,216","w":1392},"3":{"d":"1048,-308v-11,-99,-122,-118,-230,-118r-768,0v-27,0,-40,-12,-40,-36v0,-27,13,-40,40,-40r769,0v85,-1,163,-24,207,-68v32,-32,22,-90,22,-147v0,-79,-78,-118,-233,-118r-181,0v-27,0,-40,-12,-40,-37v0,-25,13,-37,40,-37r144,0v248,0,372,66,372,199v0,142,-35,209,-169,241v132,22,169,101,169,247v0,148,-120,222,-361,222r-739,0v-26,0,-39,-12,-39,-37v0,-25,13,-37,39,-37r763,0v157,0,235,-47,235,-141r0,-93","w":1283},"4":{"d":"1284,-33v0,25,-17,38,-51,38v-34,0,-51,-13,-51,-38r0,-216r-1038,0v-36,0,-54,-19,-54,-58r0,-569v0,-25,17,-38,50,-38v33,0,49,13,49,38r0,530r993,0r0,-530v0,-25,17,-38,51,-38v34,0,51,13,51,38r0,843","w":1417},"5":{"d":"1237,-211v0,141,-128,211,-385,211r-735,0v-24,0,-36,-12,-36,-36v0,-25,12,-38,36,-38r746,0v182,0,273,-46,273,-137r0,-143v0,-99,-75,-149,-225,-149r-794,0v-17,0,-25,-9,-25,-26r0,-353v0,-18,8,-27,25,-27r557,0v25,0,37,12,37,37v0,25,-12,37,-37,37r-483,0r0,260r694,0v235,0,352,74,352,221r0,143","w":1370},"6":{"d":"1201,-360v0,-97,-84,-145,-253,-145r-712,0r0,277v0,103,83,154,248,154r495,0v148,0,222,-46,222,-138r0,-148xm1301,-211v0,141,-115,211,-346,211r-450,0v-248,0,-372,-69,-372,-207r0,-487v0,-143,144,-214,433,-214r131,0v25,0,37,12,37,36v0,25,-12,37,-37,37r-191,0v-180,0,-270,53,-270,159r0,97r686,0v253,0,379,72,379,216r0,152","w":1391},"7":{"d":"1076,-909v57,-5,80,48,47,89r-648,805v-24,32,-78,7,-76,-31v0,-9,4,-19,13,-30r611,-759r-971,0v-23,0,-35,-14,-35,-41v0,-22,12,-33,35,-33r1024,0","w":1180},"8":{"d":"1181,-293v0,-89,-80,-133,-240,-133r-469,0v-160,0,-240,44,-240,133r0,107v0,75,80,112,240,112r469,0v160,0,240,-38,240,-113r0,-106xm251,-614v8,96,100,111,221,111r470,0v146,0,219,-36,219,-109r0,-104v0,-79,-73,-119,-219,-119r-470,0v-147,0,-221,40,-221,119r0,102xm1283,-274v0,209,-92,274,-364,274r-423,0v-242,0,-363,-69,-363,-208v0,-157,38,-222,192,-257v-124,-24,-177,-82,-177,-229v0,-143,119,-215,368,-215r381,0v243,0,364,72,364,215v0,143,-25,193,-168,229v127,26,190,90,190,191","w":1416},"9":{"d":"1085,-406r0,-274v0,-103,-82,-155,-245,-155r-435,0v-143,0,-214,46,-214,138r0,148v0,95,85,143,254,143r640,0xm1183,-216v0,144,-117,216,-351,216r-165,0v-27,0,-40,-12,-40,-37v0,-25,13,-37,40,-37r138,0v187,0,280,-52,280,-155r0,-102r-615,0v-253,0,-380,-72,-380,-215r0,-155v0,-139,115,-208,346,-208r379,0v245,0,368,83,368,249r0,444","w":1316},":":{"d":"271,-57v0,33,-24,50,-71,50v-47,0,-71,-17,-71,-50v0,-33,23,-50,69,-50v49,0,73,17,73,50xm271,-433v0,33,-24,50,-71,50v-47,0,-71,-17,-71,-50v0,-33,23,-50,69,-50v49,0,73,17,73,50","w":404},";":{"d":"233,-430v0,33,-23,49,-70,49v-47,0,-71,-16,-71,-49v0,-35,23,-52,69,-52v48,0,72,17,72,52xm113,-125v0,-45,97,-68,103,-12r-59,237v-4,24,-28,40,-53,41v-23,1,-38,-16,-33,-41","w":287},"<":{"d":"534,-218v46,16,32,90,-16,88v-8,0,-16,-2,-24,-6r-463,-227v-29,-10,-27,-57,0,-70r455,-215v50,-27,98,51,44,75r-387,176","w":656},"=":{"d":"176,-251v-21,0,-31,-11,-31,-33v0,-21,10,-31,31,-31r502,0v19,0,29,11,29,33v0,21,-10,31,-29,31r-502,0xm176,-490v-21,0,-31,-12,-31,-35v0,-19,10,-29,31,-29r502,0v23,0,35,11,35,33v0,21,-12,31,-35,31r-502,0","w":857},">":{"d":"124,-573v-45,-17,-22,-82,21,-80v8,0,16,2,24,5r454,215v29,8,27,57,0,70r-463,227v-40,23,-86,-22,-63,-63v4,-7,12,-14,23,-19r392,-179","w":655},"?":{"d":"274,-57v0,33,-24,50,-71,50v-47,0,-70,-17,-70,-50v0,-33,23,-50,70,-50v47,0,71,17,71,50xm820,-585v0,136,-115,204,-345,204r-130,0v-79,-2,-90,50,-90,131v0,32,-16,48,-49,48v-49,0,-46,-46,-46,-94v0,-104,66,-156,199,-156r142,0v152,0,228,-39,228,-116r0,-127v0,-93,-76,-140,-228,-140v-42,0,-95,13,-95,-36v0,-42,33,-38,72,-38v228,0,342,78,342,233r0,91","w":953},"@":{"d":"694,-599v-86,1,-240,-14,-240,58r0,180v-8,66,157,54,240,54r0,-292xm1044,-376v0,99,-53,148,-158,148r-310,0v-136,0,-204,-44,-204,-132r0,-179v0,-85,67,-128,201,-128r182,0v15,0,23,8,23,23r0,337v79,-2,176,20,176,-69r0,-384v0,-50,-42,-75,-126,-75r-458,0v-101,0,-152,37,-152,111r1,525v0,83,52,125,157,125v45,0,122,-16,122,30v0,53,-45,44,-92,44v-182,0,-273,-66,-273,-199r0,-525v0,-123,79,-185,236,-185r459,0v144,0,216,57,216,172r0,361","w":1177},"A":{"d":"1006,-334r-323,-489r-326,489r649,0xm145,-14v-28,44,-115,3,-82,-47r545,-815v26,-53,114,-50,148,0r545,813v27,33,-5,68,-42,66v-17,0,-30,-6,-39,-19r-163,-242r-749,0","w":1366,"k":{"v":159,"Y":207,"W":207,"V":207,"T":159,"L":95}},"B":{"d":"233,-413r0,339r672,0v141,0,211,-39,211,-116r0,-92v0,-87,-85,-131,-256,-131r-627,0xm860,-486v128,-1,216,-22,223,-127r0,-95v0,-85,-69,-127,-208,-127r-636,0r0,349r621,0xm873,-909v200,1,315,67,315,273v0,103,-54,163,-162,182v129,22,192,87,192,243v0,141,-104,211,-313,211r-747,0v-17,0,-25,-9,-25,-28r0,-854v0,-18,8,-27,25,-27r715,0","w":1351},"C":{"d":"490,-835v-171,0,-257,43,-257,129r0,485v0,98,93,147,280,147r521,0v21,0,32,12,32,37v0,25,-11,37,-32,37r-540,0v-241,0,-361,-73,-361,-218r0,-488v0,-135,118,-203,353,-203r548,0v21,0,32,12,32,36v0,25,-11,38,-32,38r-544,0","w":1148},"D":{"d":"1128,-694v0,-94,-83,-141,-249,-141r-643,0r0,761r640,0v168,0,252,-52,252,-155r0,-465xm1228,-229v0,153,-116,229,-349,229r-720,0v-17,0,-26,-9,-26,-28r0,-854v0,-18,9,-27,26,-27r723,0v231,0,346,72,346,215r0,465","w":1361},"E":{"d":"1089,-486v19,0,29,12,29,37v0,24,-10,36,-29,36r-853,0r0,198v0,94,84,141,251,141r602,0v21,0,31,13,31,38v0,24,-10,36,-31,36r-608,0v-232,0,-348,-70,-348,-209r0,-485v0,-143,120,-215,361,-215r166,0v19,0,29,13,29,38v0,24,-10,36,-29,36r-113,0v-207,0,-311,47,-311,141r0,208r853,0","w":1191,"k":{"v":47,"Y":143,"W":143,"V":143,"T":191}},"F":{"d":"236,-413r0,380v0,25,-17,38,-50,38v-35,0,-53,-13,-53,-38r0,-658v0,-145,117,-218,351,-218r128,0v23,0,35,11,35,34v2,66,-89,40,-144,40v-178,0,-267,47,-267,142r0,207r848,0v23,0,34,11,34,34v0,26,-11,39,-34,39r-848,0","w":1128},"G":{"d":"1213,-212v0,141,-110,212,-331,212r-385,0v-243,0,-364,-70,-364,-211r0,-490v0,-139,122,-208,367,-208r150,0v21,0,31,12,31,37v2,63,-85,37,-137,37v-205,0,-308,45,-308,134r0,490v0,91,88,137,264,137r382,0v153,0,229,-45,229,-134r0,-252v0,-25,17,-38,51,-38v34,0,51,13,51,38r0,248","w":1308},"H":{"d":"1242,-33v0,25,-17,38,-51,38v-33,0,-49,-13,-49,-38r0,-380r-892,0r0,380v0,25,-17,38,-52,38v-34,0,-51,-13,-51,-38r0,-843v0,-25,18,-38,53,-38v33,0,50,13,50,38r0,390r892,0r0,-390v0,-25,16,-38,48,-38v35,0,52,13,52,38r0,843","w":1390},"I":{"d":"236,-33v0,24,-17,36,-52,36v-34,0,-51,-12,-51,-36r0,-844v0,-25,18,-38,54,-38v33,0,49,13,49,38r0,844","w":369},"J":{"d":"466,-252v0,168,-113,252,-339,252v-47,0,-117,18,-117,-36v0,-56,69,-38,117,-38v158,0,237,-56,237,-168r0,-634v0,-25,17,-38,52,-38v33,0,50,13,50,38r0,624","w":599},"K":{"d":"976,-909v44,-28,104,38,53,66r-708,380r730,390v34,15,28,80,-16,77v-8,0,-16,-2,-25,-6r-779,-427r0,396v0,25,-16,38,-48,38v-33,0,-50,-13,-50,-38r0,-843v0,-25,17,-38,51,-38v31,0,47,13,47,38r0,384","w":1166},"L":{"d":"552,0v-279,0,-419,-74,-419,-222r0,-655v0,-25,17,-38,51,-38v35,0,52,13,52,38r0,655v0,99,103,148,309,148r553,0v23,0,34,14,34,41v0,22,-11,33,-34,33r-546,0","w":1132,"k":{"o":31,"g":31,"Y":223,"W":223,"V":223,"O":47,"A":-56,"0":47,"'":111,"\"":111}},"M":{"d":"1634,-33v0,25,-18,38,-53,38v-31,0,-46,-13,-46,-38r0,-751r-566,749v-38,54,-124,51,-163,0r-574,-746r0,748v0,25,-16,38,-48,38v-34,0,-51,-13,-51,-38r0,-821v-2,-82,98,-67,136,-19r622,792r610,-800v30,-48,133,-49,133,30r0,818","w":1767},"N":{"d":"133,-847v-4,-65,82,-81,125,-43r863,765r0,-751v0,-25,17,-38,51,-38v32,0,48,13,48,38r0,810v7,67,-76,89,-119,50r-869,-778r0,761v0,25,-16,38,-49,38v-33,0,-50,-13,-50,-38r0,-814","w":1353},"O":{"d":"1091,-674v0,-107,-83,-161,-250,-161r-341,0v-176,0,-264,54,-264,161r0,443v0,105,88,157,264,157r332,0v173,0,259,-52,259,-157r0,-443xm1192,-228v0,152,-132,228,-397,228r-265,0v-265,0,-397,-75,-397,-226r0,-454v0,-153,132,-229,397,-229r265,0v265,0,397,76,397,229r0,452","w":1325,"k":{"Y":79,"W":79,"V":79,".":63,",":63,"'":79,"\"":79}},"P":{"d":"1126,-706v0,-86,-80,-129,-241,-129r-649,0r0,411r641,0v166,0,249,-45,249,-134r0,-148xm1224,-551v0,134,-122,201,-365,201r-623,0r0,317v0,25,-17,38,-52,38v-34,0,-51,-13,-51,-38r0,-849v0,-18,9,-27,26,-27r708,0v238,0,357,64,357,191r0,167","w":1274},"Q":{"d":"1118,-691v0,-96,-95,-144,-286,-144r-316,0v-187,0,-280,48,-280,144r0,469v0,99,93,148,279,148r379,0v149,0,224,-49,224,-147r0,-470xm1134,53v35,19,9,73,-27,70v-8,0,-15,-3,-22,-7r-206,-119r-403,0v-229,0,-343,-74,-343,-223r0,-461v0,-148,114,-222,342,-222r395,0v233,0,350,73,350,219r0,464v0,109,-67,180,-202,212","w":1353},"R":{"d":"1117,-693v0,-95,-84,-142,-251,-142r-630,0r0,386r653,0v152,0,228,-40,228,-121r0,-123xm1120,-76v41,14,22,83,-18,81v-4,0,-10,-2,-18,-5r-848,-389r0,356v0,25,-17,38,-50,38v-35,0,-53,-13,-53,-38r0,-849v0,-18,9,-27,26,-27r685,0v249,0,373,75,373,224r0,103v0,137,-114,205,-341,205r-447,0","w":1267},"S":{"d":"1086,-198v0,132,-111,198,-334,198r-629,0v-22,0,-33,-13,-33,-38v0,-24,11,-36,33,-36r647,0v143,0,214,-44,214,-133r0,-79v0,-96,-84,-144,-252,-144r-286,0v-233,0,-350,-60,-350,-179r0,-97v0,-135,102,-203,305,-203r158,0v22,0,33,13,33,38v0,24,-11,36,-33,36r-180,0v-121,0,-182,46,-182,139r0,73v0,81,75,121,225,121r292,0v248,0,372,67,372,202r0,102","w":1176,"k":{"v":47,"Y":143,"W":143,"V":143,"T":191,".":47,",":47}},"T":{"d":"557,-835r0,802v0,25,-17,38,-50,38v-34,0,-51,-13,-51,-38r0,-802r-409,0v-21,0,-32,-13,-32,-40v0,-23,11,-34,32,-34r921,0v20,0,30,11,30,34v0,27,-10,40,-30,40r-411,0","w":1013,"k":{"y":127,"u":127,"o":175,"g":175,"e":159,"a":239,"A":175,".":191,",":191}},"U":{"d":"1214,-241v0,161,-149,241,-446,241r-213,0v-281,0,-422,-80,-422,-241r0,-635v0,-25,17,-38,50,-38v35,0,52,13,52,38r0,624v0,119,100,178,299,178r257,0v215,0,323,-59,323,-177r0,-625v0,-25,17,-38,52,-38v32,0,48,13,48,38r0,635","w":1347},"V":{"d":"63,-845v-27,-37,20,-86,63,-63v8,4,14,9,19,18r537,817r530,-817v21,-44,89,-24,90,20v0,9,-2,17,-7,24r-540,808v-29,52,-112,58,-149,2","w":1357,"k":{"y":111,"u":111,"o":143,"g":143,"e":159,"a":223,"S":31,"O":79,"A":207,"0":79,".":143,",":143}},"W":{"d":"1644,-889v15,-44,98,-25,97,18v0,6,-1,11,-4,16r-367,811v-18,55,-117,65,-143,4r-324,-762r-335,762v-15,40,-71,57,-112,32v-13,-8,-24,-20,-31,-35r-366,-812v-19,-40,36,-72,75,-53v7,4,13,10,17,19r348,795r330,-768v20,-68,112,-66,137,-7r336,775","w":1796,"k":{"y":111,"u":111,"o":143,"g":143,"e":159,"a":223,"S":31,"O":79,"A":207,"0":79,".":143,",":143}},"X":{"d":"1118,-59v28,23,-3,63,-35,63v-14,0,-26,-4,-35,-13r-448,-390r-448,390v-32,37,-111,-14,-69,-50r454,-396r-447,-390v-36,-25,-12,-71,27,-70v13,0,25,5,36,14r447,391r446,-390v26,-27,80,-13,81,24v0,11,-6,21,-18,32r-446,389","w":1201},"Y":{"d":"64,-846v-29,-26,4,-70,37,-68v13,0,24,5,34,15r435,434r433,-433v33,-41,116,9,75,51r-457,458r-1,356v0,25,-16,38,-49,38v-34,0,-51,-13,-51,-38r0,-356","w":1143,"k":{"y":111,"u":111,"o":143,"g":143,"e":159,"a":223,"S":31,"O":79,"A":207,"0":79,".":143,",":143}},"Z":{"d":"132,0v-55,4,-89,-60,-47,-96r843,-739r-815,0v-21,0,-32,-13,-32,-40v0,-23,11,-34,32,-34r899,0v39,-2,62,54,33,80r-863,755r846,0v20,0,30,12,30,37v0,25,-10,37,-30,37r-896,0","w":1124},"[":{"d":"147,-970v0,-22,6,-26,26,-27r170,0v23,0,34,11,34,34v0,63,-76,34,-127,40r0,936v50,5,129,-20,127,37v0,25,-12,37,-37,37r-167,0v-19,-1,-26,-6,-26,-27r0,-1030","w":412},"\\":{"d":"78,-850v-32,-22,-19,-78,32,-78v15,0,27,5,37,15r829,855v26,24,12,75,-29,75v-10,0,-20,-5,-29,-14","w":1046},"]":{"d":"264,60v0,21,-7,26,-25,27r-167,0v-25,0,-38,-12,-38,-37v-2,-57,79,-32,128,-37r0,-936v-51,-6,-128,23,-128,-40v0,-23,11,-34,34,-34r171,0v19,1,25,6,25,27r0,1030","w":416},"^":{"d":"523,-908v17,19,6,48,-21,46v-6,0,-13,-2,-19,-9r-185,-196r-185,196v-25,26,-66,-10,-41,-37r192,-201v20,-21,48,-21,68,0","w":597},"_":{"d":"186,252v-28,0,-42,-17,-42,-52v0,-31,14,-46,42,-46r1018,0v27,0,41,16,41,49v0,33,-14,49,-41,49r-1018,0","w":1390},"`":{"d":"263,-790v12,16,6,46,-18,43v-7,0,-13,-3,-18,-9r-202,-212v-15,-14,-12,-47,14,-45v7,0,14,3,21,10","w":291},"a":{"d":"358,-399v-106,1,-180,24,-180,117r0,99v0,76,62,114,185,114r437,0v119,0,179,-54,179,-162r0,-168r-621,0xm1065,-191v0,127,-96,191,-289,191r-387,0v-203,0,-304,-62,-304,-185r0,-94v0,-127,99,-190,298,-190r596,0v0,-98,-61,-147,-182,-147r-160,0v-18,0,-27,-12,-27,-35v0,-23,9,-34,27,-34r139,0v193,0,289,66,289,197r0,297","w":1203,"k":{"v":47}},"b":{"d":"224,-200v7,109,104,130,237,131r317,0v135,0,202,-46,202,-139r0,-268v0,-93,-76,-140,-227,-140r-529,0r0,416xm1070,-204v0,136,-114,204,-341,204r-242,0v-236,0,-354,-66,-354,-198r0,-679v0,-25,15,-38,46,-38v30,0,45,13,45,38r0,192r505,0v227,0,341,68,341,205r0,276","w":1203},"c":{"d":"471,0v-225,0,-338,-65,-338,-194r0,-298v0,-129,102,-193,305,-193r486,0v27,0,41,11,41,34v0,23,-14,35,-41,35r-504,0v-130,0,-195,40,-195,120r0,296v0,87,74,131,221,131r478,0v24,0,36,12,36,37v0,21,-12,32,-36,32r-453,0","w":1048},"d":{"d":"980,-615r-533,0v-149,0,-224,50,-224,149r0,258v0,93,72,139,216,139r303,0v159,0,238,-46,238,-139r0,-407xm1071,-191v0,127,-117,191,-351,191r-245,0v-228,0,-342,-60,-342,-179r0,-303v0,-135,114,-203,341,-203r506,0r0,-192v0,-25,15,-38,44,-38v31,0,47,13,47,38r0,686","w":1204,"k":{"'":47,"\"":47}},"e":{"d":"972,-370r0,-129v0,-78,-57,-117,-171,-117r-354,0v-149,0,-224,41,-224,123r0,123r749,0xm1060,-338v0,27,-13,41,-38,41r-799,0r0,109v0,79,75,119,224,119r572,-1v23,0,35,11,35,34v0,23,-12,35,-35,35r-538,1v-232,0,-348,-68,-348,-204r0,-278v0,-135,115,-203,344,-203r298,0v190,0,285,58,285,173r0,174","w":1188,"k":{"v":95}},"f":{"d":"400,-836v-121,1,-176,47,-170,151r279,0v19,0,28,11,28,34v0,23,-9,35,-28,35r-279,0r0,584v0,25,-15,38,-45,38v-31,0,-46,-13,-46,-38r0,-671v0,-133,96,-200,288,-200v44,0,110,-19,110,33v0,23,-10,34,-29,34r-108,0","w":537},"g":{"d":"967,-476v-5,-110,-100,-141,-232,-141r-295,1v-144,0,-216,43,-216,128r0,288v0,87,82,131,247,131r496,0r0,-407xm1059,9v0,131,-113,197,-339,197v-53,0,-145,22,-146,-34v0,-23,13,-35,39,-35r125,0v168,-6,242,-28,232,-137r-473,0v-243,0,-364,-66,-364,-198r0,-287v0,-133,110,-200,330,-200r235,0v241,0,361,67,361,202r0,492","k":{"v":63,"'":95,"\"":95}},"h":{"d":"1059,-32v0,25,-15,38,-46,38v-30,0,-45,-13,-45,-38r0,-441v0,-95,-82,-143,-245,-143r-499,0r0,584v0,25,-15,38,-46,38v-30,0,-45,-13,-45,-38r0,-845v0,-25,15,-38,45,-38v31,0,46,13,46,38r0,192r461,0v249,0,374,70,374,210r0,443"},"i":{"d":"207,-32v0,25,-15,38,-46,38v-29,0,-44,-13,-44,-38r0,-624v0,-24,14,-36,42,-36v32,0,48,12,48,36r0,624xm228,-810v0,33,-24,50,-71,50v-45,0,-67,-17,-67,-50v0,-32,22,-48,67,-48v47,0,71,16,71,48","w":318},"j":{"d":"256,-35v0,128,-92,192,-275,192v-50,0,-138,22,-139,-33v0,-24,12,-36,35,-36r114,0v115,0,173,-37,173,-111r0,-633v0,-24,15,-36,45,-36v31,0,47,12,47,36r0,621xm278,-813v0,33,-23,50,-69,50v-46,0,-69,-17,-69,-50v0,-32,23,-48,69,-48v46,0,69,16,69,48","w":368},"k":{"d":"836,-689v40,-19,82,41,37,62r-570,271r572,292v33,17,12,74,-25,71v-7,0,-14,-2,-21,-6r-607,-314r0,281v0,25,-14,38,-43,38v-31,0,-46,-13,-46,-38r0,-845v0,-25,15,-38,46,-38v29,0,43,13,43,38r0,484","w":961},"l":{"d":"224,-32v0,25,-15,38,-44,38v-31,0,-47,-13,-47,-38r0,-845v0,-25,15,-38,45,-38v31,0,46,13,46,38r0,845","w":357},"m":{"d":"1427,-32v0,25,-16,38,-48,38v-30,0,-45,-13,-45,-38r0,-461v0,-82,-78,-123,-234,-123v-182,0,-273,48,-273,144r0,440v0,25,-15,38,-45,38v-31,0,-47,-13,-47,-38r0,-441v0,-95,-91,-143,-274,-143v-158,0,-237,41,-237,124r0,460v0,25,-16,38,-47,38v-29,0,-44,-13,-44,-38r0,-443v0,-140,109,-210,328,-210v193,0,301,41,324,124v28,-83,133,-124,315,-124v218,0,327,70,327,210r0,443","w":1560},"n":{"d":"1048,-32v0,25,-15,38,-46,38v-31,0,-47,-13,-47,-38r0,-477v0,-71,-66,-107,-199,-107r-329,0v-135,0,-203,36,-203,108r0,476v0,25,-15,38,-44,38v-31,0,-47,-13,-47,-38r0,-474v0,-119,110,-179,330,-179r255,0v220,0,330,59,330,177r0,476","w":1181,"k":{"'":95,"\"":95}},"o":{"d":"953,-492v0,-83,-69,-124,-206,-124r-301,0v-148,0,-222,46,-222,137r0,279v0,87,74,131,223,131r302,0v136,0,204,-44,204,-131r0,-292xm1048,-200v0,133,-107,200,-320,200r-262,0v-222,0,-333,-67,-333,-200r0,-279v0,-137,111,-206,333,-206r262,0v213,0,320,68,320,205r0,280","w":1181,"k":{"v":63,"'":95,"\"":95}},"p":{"d":"967,-496v0,-80,-77,-120,-230,-120r-291,0v-148,0,-222,41,-222,123r0,424r550,0v129,0,193,-43,193,-128r0,-299xm1059,-198v0,132,-102,198,-307,198r-528,0r0,183v0,26,-15,39,-46,39v-30,0,-45,-13,-45,-39r0,-679v0,-126,109,-189,328,-189r253,0v230,0,345,62,345,186r0,301"},"q":{"d":"133,-499v0,-124,115,-186,346,-186r251,0v219,0,329,63,329,189r0,679v0,26,-15,39,-45,39v-31,0,-46,-13,-46,-39r0,-183r-528,0v-205,0,-307,-66,-307,-198r0,-301xm225,-197v0,85,64,128,193,128r550,0r0,-424v0,-82,-74,-123,-221,-123r-292,0v-153,0,-230,40,-230,120r0,299"},"r":{"d":"434,-616v-139,0,-208,43,-208,130r0,454v0,25,-15,38,-46,38v-31,0,-47,-13,-47,-38r0,-454v0,-133,105,-199,315,-199v41,0,91,-13,91,35v0,56,-62,34,-105,34","w":599},"s":{"d":"942,-216v0,157,-66,216,-258,216r-557,0v-25,0,-37,-11,-37,-33v0,-24,12,-36,37,-36r580,0v112,-1,139,-44,139,-147v0,-66,-51,-99,-154,-99r-307,0v-213,-7,-286,-51,-286,-213v0,-105,91,-157,272,-157r153,0v26,0,39,12,39,35v0,23,-13,34,-39,34r-185,0v-122,3,-150,33,-150,135v0,65,58,97,173,97r313,0v178,0,267,56,267,168","w":1012,"k":{"e":15}},"t":{"d":"267,-616r0,584v0,25,-15,38,-45,38v-30,0,-45,-13,-45,-38r0,-584v-47,-5,-122,18,-122,-35v0,-52,76,-29,122,-34r0,-192v0,-25,15,-38,46,-38v29,0,44,13,44,38r0,192r284,0v23,0,34,12,34,35v0,23,-11,34,-34,34r-284,0","w":595,"k":{"e":47,"a":143}},"u":{"d":"1069,-190v0,127,-116,190,-349,190r-227,0v-235,0,-352,-63,-352,-190r0,-470v0,-25,15,-38,45,-38v31,0,46,13,46,38r0,470v0,81,80,121,239,121r271,0v156,0,234,-40,234,-119r0,-472v0,-24,16,-36,48,-36v30,0,45,12,45,36r0,470","w":1207},"v":{"d":"1039,-689v23,-34,79,-12,79,25v0,8,-3,16,-9,24r-492,625v-16,27,-47,28,-67,2r-491,-627v-23,-28,8,-65,39,-63v11,0,21,5,29,16r457,586","w":1172,"k":{"o":47,"g":47,"e":63,"a":111,"A":175}},"w":{"d":"1341,-671v18,-41,103,-10,81,36r-286,606v-14,45,-112,46,-132,3r-262,-553r-267,554v-16,44,-115,42,-135,-1r-279,-603v-23,-40,21,-84,61,-61v7,4,13,10,17,19r274,573r267,-552v16,-46,99,-46,121,-1r268,553","w":1481},"x":{"d":"110,-618v-39,-22,-15,-74,25,-73v11,0,22,4,31,11r374,287r374,-287v26,-22,76,-6,75,28v0,13,-6,24,-19,34r-363,276r363,278v30,21,6,72,-27,71v-8,0,-15,-2,-21,-7r-382,-290r-382,290v-39,29,-86,-35,-48,-64r362,-278","w":1080},"y":{"d":"1054,24v0,121,-93,182,-280,182r-165,0v-21,0,-32,-12,-32,-35v0,-23,11,-34,32,-34r176,0v129,-3,186,-37,178,-137r-505,0v-217,0,-325,-63,-325,-190r0,-470v0,-24,15,-36,46,-36v30,0,45,12,45,36r0,470v0,81,70,121,209,121r530,0r0,-591v0,-24,15,-36,45,-36v31,0,46,12,46,36r0,684","w":1187},"z":{"d":"173,0v-64,6,-84,-59,-33,-94r759,-522r-723,0v-23,0,-34,-11,-34,-34v0,-23,11,-35,34,-35r787,0v60,-4,84,58,33,93r-759,523r790,0v22,0,33,11,33,34v0,23,-11,35,-33,35r-854,0","w":1160},"{":{"d":"42,-459v0,-60,77,-18,77,-83r0,-375v-4,-58,68,-83,169,-80v25,0,37,13,37,39v0,71,-129,-1,-129,75r0,341v0,45,-25,73,-75,85v50,17,75,47,75,90r0,356v-1,49,117,-9,117,61v0,32,-18,37,-50,37v-96,0,-144,-26,-144,-79r0,-378v8,-69,-77,-28,-77,-89","w":373},"|":{"d":"250,186v0,33,-18,50,-55,50v-32,0,-48,-17,-48,-50r0,-1153v0,-25,18,-37,53,-37v33,0,50,12,50,37r0,1153","w":407},"}":{"d":"329,-459v0,61,-77,19,-77,89r0,378v4,57,-65,82,-161,79v-22,0,-33,-12,-33,-37v0,-69,117,-11,117,-61r0,-356v0,-43,25,-73,75,-90v-50,-12,-75,-40,-75,-85r0,-341v11,-74,-129,-4,-129,-75v0,-33,20,-39,54,-39v101,0,152,27,152,80r0,375v-6,64,77,23,77,83","w":373},"~":{"w":2048},"\u00a0":{"w":528}}});
